{"parameters/model.0.conv.weight": {"_type": "histogram", "values": [4.0, 1.0, 5.0, 4.0, 5.0, 6.0, 5.0, 2.0, 4.0, 1.0, 3.0, 2.0, 3.0, 1.0, 2.0, 0.0, 2.0, 2.0, 0.0, 1.0, 0.0, 2.0, 0.0, 0.0, 1.0, 0.0, 1.0, 2.0, 6.0, 7.0, 6.0, 1.0, 1.0, 8.0, 3.0, 3.0, 3.0, 5.0, 0.0, 1.0, 0.0, 1.0, 1.0, 0.0, 2.0, 2.0, 2.0, 1.0, 5.0, 3.0, 4.0, 2.0, 8.0, 6.0, 2.0, 0.0, 3.0, 0.0, 1.0, 3.0, 4.0, 4.0, 1.0, 4.0], "bins": [-1.21317458152771, -1.1771281957626343, -1.1410818099975586, -1.105035424232483, -1.0689890384674072, -1.0329426527023315, -0.9968963265419006, -0.960849940776825, -0.9248035550117493, -0.8887571692466736, -0.8527107834815979, -0.8166643977165222, -0.7806180715560913, -0.7445716857910156, -0.7085253000259399, -0.6724789142608643, -0.6364325284957886, -0.6003861427307129, -0.5643397569656372, -0.5282933712005615, -0.4922470152378082, -0.45620062947273254, -0.42015427350997925, -0.38410788774490356, -0.3480615019798279, -0.3120151162147522, -0.2759687304496765, -0.23992237448692322, -0.20387598872184753, -0.16782960295677185, -0.13178323209285736, -0.09573685377836227, -0.05969059467315674, -0.02364421635866165, 0.012402161955833435, 0.04844854027032852, 0.08449491858482361, 0.1205412968993187, 0.15658767521381378, 0.19263404607772827, 0.22868043184280396, 0.26472681760787964, 0.3007732033729553, 0.3368195593357086, 0.3728659451007843, 0.40891233086586, 0.4449586868286133, 0.48100507259368896, 0.5170514583587646, 0.5530978441238403, 0.589144229888916, 0.6251906156539917, 0.6612370014190674, 0.6972833275794983, 0.733329713344574, 0.7693760991096497, 0.8054224848747253, 0.841468870639801, 0.8775152564048767, 0.9135616421699524, 0.9496079683303833, 0.985654354095459, 1.0217007398605347, 1.0577471256256104, 1.093793511390686]}, "_timestamp": 1646834072, "_runtime": 306, "parameters/model.0.conv.bias": {"_type": "histogram", "values": [1.0, 0.0, 0.0, 0.0, 0.0, 0.0, 0.0, 0.0, 0.0, 0.0, 0.0, 0.0, 0.0, 0.0, 0.0, 0.0, 0.0, 0.0, 0.0, 0.0, 0.0, 0.0, 0.0, 0.0, 0.0, 0.0, 0.0, 0.0, 0.0, 0.0, 0.0, 0.0, 0.0, 0.0, 0.0, 0.0, 0.0, 0.0, 0.0, 0.0, 0.0, 0.0, 0.0, 0.0, 0.0, 0.0, 0.0, 0.0, 0.0, 0.0, 0.0, 0.0, 0.0, 0.0, 0.0, 0.0, 0.0, 0.0, 0.0, 0.0, 0.0, 0.0, 0.0, 1.0], "bins": [-0.44853654503822327, -0.4431309700012207, -0.43772536516189575, -0.4323197901248932, -0.42691418528556824, -0.4215086102485657, -0.4161030054092407, -0.41069743037223816, -0.4052918553352356, -0.39988628029823303, -0.3944806754589081, -0.3890751004219055, -0.38366949558258057, -0.378263920545578, -0.37285831570625305, -0.3674527406692505, -0.36204713582992554, -0.356641560792923, -0.351235955953598, -0.34583038091659546, -0.3404247760772705, -0.33501920104026794, -0.329613596200943, -0.32420802116394043, -0.3188024163246155, -0.3133968412876129, -0.30799123644828796, -0.3025856614112854, -0.29718005657196045, -0.2917744815349579, -0.28636887669563293, -0.28096330165863037, -0.2755577266216278, -0.27015215158462524, -0.2647465467453003, -0.25934097170829773, -0.2539353668689728, -0.24852979183197021, -0.24312420189380646, -0.2377186119556427, -0.23231302201747894, -0.22690743207931519, -0.22150184214115143, -0.21609625220298767, -0.2106906771659851, -0.20528508722782135, -0.1998794972896576, -0.19447390735149384, -0.18906831741333008, -0.18366272747516632, -0.17825713753700256, -0.1728515475988388, -0.16744595766067505, -0.16204038262367249, -0.15663479268550873, -0.15122920274734497, -0.1458236128091812, -0.14041802287101746, -0.1350124329328537, -0.12960684299468994, -0.12420126050710678, -0.11879567056894302, -0.11339008808135986, -0.1079844981431961, -0.10257890820503235]}, "parameters/model.0.adn.A.weight": {"_type": "histogram", "values": [0.0, 0.0, 0.0, 0.0, 0.0, 0.0, 0.0, 0.0, 0.0, 0.0, 0.0, 0.0, 0.0, 0.0, 0.0, 0.0, 0.0, 0.0, 0.0, 0.0, 0.0, 0.0, 0.0, 0.0, 0.0, 0.0, 0.0, 0.0, 0.0, 0.0, 0.0, 0.0, 1.0, 0.0, 0.0, 0.0, 0.0, 0.0, 0.0, 0.0, 0.0, 0.0, 0.0, 0.0, 0.0, 0.0, 0.0, 0.0, 0.0, 0.0, 0.0, 0.0, 0.0, 0.0, 0.0, 0.0, 0.0, 0.0, 0.0, 0.0, 0.0, 0.0, 0.0, 0.0], "bins": [-0.43394461274147034, -0.43394461274147034, -0.43394461274147034, -0.43394461274147034, -0.43394461274147034, -0.43394461274147034, -0.43394461274147034, -0.43394461274147034, -0.43394461274147034, -0.43394461274147034, -0.43394461274147034, -0.43394461274147034, -0.43394461274147034, -0.43394461274147034, -0.43394461274147034, -0.43394461274147034, -0.43394461274147034, -0.43394461274147034, -0.43394461274147034, -0.43394461274147034, -0.43394461274147034, -0.43394461274147034, -0.43394461274147034, -0.43394461274147034, -0.43394461274147034, -0.43394461274147034, -0.43394461274147034, -0.43394461274147034, -0.43394461274147034, -0.43394461274147034, -0.43394461274147034, -0.43394461274147034, -0.43394461274147034, -0.43394461274147034, -0.43394461274147034, -0.43394461274147034, -0.43394461274147034, -0.43394461274147034, -0.43394461274147034, -0.43394461274147034, -0.43394461274147034, -0.43394461274147034, -0.43394461274147034, -0.43394461274147034, -0.43394461274147034, -0.43394461274147034, -0.43394461274147034, -0.43394461274147034, -0.43394461274147034, -0.43394461274147034, -0.43394461274147034, -0.43394461274147034, -0.43394461274147034, -0.43394461274147034, -0.43394461274147034, -0.43394461274147034, -0.43394461274147034, -0.43394461274147034, -0.43394461274147034, -0.43394461274147034, -0.43394461274147034, -0.43394461274147034, -0.43394461274147034, -0.43394461274147034, -0.43394461274147034]}, "parameters/model.1.submodule.0.conv.weight": {"_type": "histogram", "values": [3.0, 0.0, 5.0, 2.0, 2.0, 2.0, 3.0, 3.0, 2.0, 4.0, 3.0, 1.0, 0.0, 2.0, 0.0, 0.0, 2.0, 1.0, 1.0, 0.0, 0.0, 1.0, 2.0, 3.0, 3.0, 2.0, 1.0, 3.0, 0.0, 2.0, 4.0, 1.0, 1.0, 2.0, 2.0, 1.0, 0.0, 0.0, 1.0, 2.0, 2.0, 4.0, 6.0, 4.0, 3.0, 4.0, 2.0, 2.0, 0.0, 5.0, 1.0, 1.0, 0.0, 1.0, 0.0, 2.0, 1.0, 0.0, 0.0, 1.0, 0.0, 0.0, 1.0, 1.0], "bins": [-0.893786609172821, -0.8628982305526733, -0.8320097923278809, -0.8011213541030884, -0.7702329754829407, -0.739344596862793, -0.7084561586380005, -0.677567720413208, -0.6466793417930603, -0.6157909631729126, -0.5849025249481201, -0.5540140867233276, -0.5231257081031799, -0.49223729968070984, -0.46134889125823975, -0.43046048283576965, -0.39957207441329956, -0.36868366599082947, -0.3377952575683594, -0.3069068491458893, -0.2760184407234192, -0.2451300323009491, -0.214241623878479, -0.1833532154560089, -0.15246480703353882, -0.12157639861106873, -0.09068799018859863, -0.05979958176612854, -0.028911173343658447, 0.0019772350788116455, 0.03286564350128174, 0.06375405192375183, 0.0946425199508667, 0.1255309283733368, 0.15641933679580688, 0.18730774521827698, 0.21819615364074707, 0.24908456206321716, 0.27997297048568726, 0.31086137890815735, 0.34174978733062744, 0.37263819575309753, 0.4035266041755676, 0.4344150125980377, 0.4653034210205078, 0.4961918294429779, 0.527080237865448, 0.5579686164855957, 0.5888570547103882, 0.6197454929351807, 0.6506338715553284, 0.6815222501754761, 0.7124106884002686, 0.743299126625061, 0.7741875052452087, 0.8050758838653564, 0.8359643220901489, 0.8668527603149414, 0.8977411389350891, 0.9286295175552368, 0.9595179557800293, 0.9904063940048218, 1.0212948322296143, 1.0521831512451172, 1.0830715894699097]}, "parameters/model.1.submodule.0.conv.bias": {"_type": "histogram", "values": [1.0, 0.0, 0.0, 0.0, 0.0, 0.0, 0.0, 0.0, 0.0, 0.0, 0.0, 0.0, 0.0, 0.0, 0.0, 0.0, 0.0, 0.0, 0.0, 0.0, 0.0, 0.0, 0.0, 0.0, 0.0, 0.0, 0.0, 0.0, 0.0, 0.0, 0.0, 0.0, 0.0, 0.0, 0.0, 0.0, 0.0, 0.0, 0.0, 0.0, 0.0, 0.0, 0.0, 0.0, 0.0, 0.0, 0.0, 0.0, 0.0, 0.0, 0.0, 0.0, 0.0, 0.0, 0.0, 0.0, 0.0, 0.0, 0.0, 0.0, 0.0, 0.0, 0.0, 1.0], "bins": [-0.8919857740402222, -0.8650895357131958, -0.8381933569908142, -0.8112971186637878, -0.7844009399414062, -0.7575047016143799, -0.7306084632873535, -0.7037122845649719, -0.6768160462379456, -0.6499198079109192, -0.6230236291885376, -0.5961273908615112, -0.5692311525344849, -0.5423349738121033, -0.5154387354850769, -0.4885425269603729, -0.46164631843566895, -0.43475010991096497, -0.407853901386261, -0.3809576630592346, -0.35406145453453064, -0.32716524600982666, -0.3002690076828003, -0.2733727991580963, -0.24647659063339233, -0.21958038210868835, -0.19268415868282318, -0.165787935256958, -0.13889172673225403, -0.11199551075696945, -0.08509929478168488, -0.0582030788064003, -0.03130686283111572, -0.004410646855831146, 0.02248556911945343, 0.04938178509473801, 0.07627800107002258, 0.10317421704530716, 0.13007043302059174, 0.1569666564464569, 0.1838628649711609, 0.21075907349586487, 0.23765529692173004, 0.2645515203475952, 0.2914477288722992, 0.3183439373970032, 0.34524017572402954, 0.3721363842487335, 0.3990325927734375, 0.4259288012981415, 0.45282500982284546, 0.4797212481498718, 0.5066174268722534, 0.5335136651992798, 0.5604099035263062, 0.5873060822486877, 0.6142023205757141, 0.6410985589027405, 0.6679947376251221, 0.6948909759521484, 0.7217872142791748, 0.7486833930015564, 0.7755796313285828, 0.8024758100509644, 0.8293720483779907]}, "parameters/model.1.submodule.0.adn.A.weight": {"_type": "histogram", "values": [0.0, 0.0, 0.0, 0.0, 0.0, 0.0, 0.0, 0.0, 0.0, 0.0, 0.0, 0.0, 0.0, 0.0, 0.0, 0.0, 0.0, 0.0, 0.0, 0.0, 0.0, 0.0, 0.0, 0.0, 0.0, 0.0, 0.0, 0.0, 0.0, 0.0, 0.0, 0.0, 1.0, 0.0, 0.0, 0.0, 0.0, 0.0, 0.0, 0.0, 0.0, 0.0, 0.0, 0.0, 0.0, 0.0, 0.0, 0.0, 0.0, 0.0, 0.0, 0.0, 0.0, 0.0, 0.0, 0.0, 0.0, 0.0, 0.0, 0.0, 0.0, 0.0, 0.0, 0.0], "bins": [-1.0094445943832397, -1.0094445943832397, -1.0094445943832397, -1.0094445943832397, -1.0094445943832397, -1.0094445943832397, -1.0094445943832397, -1.0094445943832397, -1.0094445943832397, -1.0094445943832397, -1.0094445943832397, -1.0094445943832397, -1.0094445943832397, -1.0094445943832397, -1.0094445943832397, -1.0094445943832397, -1.0094445943832397, -1.0094445943832397, -1.0094445943832397, -1.0094445943832397, -1.0094445943832397, -1.0094445943832397, -1.0094445943832397, -1.0094445943832397, -1.0094445943832397, -1.0094445943832397, -1.0094445943832397, -1.0094445943832397, -1.0094445943832397, -1.0094445943832397, -1.0094445943832397, -1.0094445943832397, -1.0094445943832397, -1.0094445943832397, -1.0094445943832397, -1.0094445943832397, -1.0094445943832397, -1.0094445943832397, -1.0094445943832397, -1.0094445943832397, -1.0094445943832397, -1.0094445943832397, -1.0094445943832397, -1.0094445943832397, -1.0094445943832397, -1.0094445943832397, -1.0094445943832397, -1.0094445943832397, -1.0094445943832397, -1.0094445943832397, -1.0094445943832397, -1.0094445943832397, -1.0094445943832397, -1.0094445943832397, -1.0094445943832397, -1.0094445943832397, -1.0094445943832397, -1.0094445943832397, -1.0094445943832397, -1.0094445943832397, -1.0094445943832397, -1.0094445943832397, -1.0094445943832397, -1.0094445943832397, -1.0094445943832397]}, "parameters/model.1.submodule.1.submodule.0.conv.weight": {"_type": "histogram", "values": [3.0, 0.0, 1.0, 3.0, 5.0, 3.0, 4.0, 5.0, 6.0, 8.0, 5.0, 2.0, 11.0, 9.0, 5.0, 6.0, 6.0, 11.0, 10.0, 9.0, 8.0, 2.0, 4.0, 1.0, 6.0, 2.0, 7.0, 4.0, 6.0, 3.0, 1.0, 1.0, 2.0, 2.0, 2.0, 3.0, 4.0, 2.0, 1.0, 0.0, 0.0, 2.0, 0.0, 1.0, 2.0, 1.0, 7.0, 3.0, 4.0, 3.0, 3.0, 2.0, 3.0, 2.0, 0.0, 2.0, 1.0, 1.0, 2.0, 0.0, 1.0, 1.0, 1.0, 1.0], "bins": [-0.9817859530448914, -0.9473199844360352, -0.912854015827179, -0.8783880472183228, -0.8439220190048218, -0.8094560503959656, -0.7749900817871094, -0.7405241131782532, -0.706058144569397, -0.6715921759605408, -0.6371262073516846, -0.6026602387428284, -0.5681942701339722, -0.5337282419204712, -0.499262273311615, -0.4647963047027588, -0.4303303360939026, -0.3958643674850464, -0.3613983988761902, -0.3269324004650116, -0.2924664318561554, -0.2580004632472992, -0.2235344797372818, -0.1890684962272644, -0.1546025276184082, -0.1201365515589714, -0.0856705754995346, -0.05120459944009781, -0.01673862338066101, 0.017727352678775787, 0.052193328738212585, 0.08665930479764938, 0.12112534046173096, 0.15559130907058716, 0.19005729258060455, 0.22452327609062195, 0.25898924469947815, 0.29345521330833435, 0.32792121171951294, 0.36238718032836914, 0.39685314893722534, 0.43131911754608154, 0.46578508615493774, 0.500251054763794, 0.5347170829772949, 0.5691830515861511, 0.6036490201950073, 0.6381149888038635, 0.6725809574127197, 0.7070469260215759, 0.7415128946304321, 0.7759788632392883, 0.8104448318481445, 0.8449108600616455, 0.8793768286705017, 0.9138427972793579, 0.9483087658882141, 0.9827747344970703, 1.0172407627105713, 1.0517066717147827, 1.0861726999282837, 1.1206386089324951, 1.155104637145996, 1.1895705461502075, 1.2240365743637085]}, "parameters/model.1.submodule.1.submodule.0.conv.bias": {"_type": "histogram", "values": [1.0, 0.0, 0.0, 0.0, 0.0, 1.0, 0.0, 0.0, 0.0, 0.0, 0.0, 0.0, 0.0, 0.0, 0.0, 0.0, 0.0, 0.0, 0.0, 0.0, 0.0, 0.0, 0.0, 0.0, 0.0, 0.0, 0.0, 0.0, 0.0, 0.0, 0.0, 0.0, 0.0, 0.0, 0.0, 0.0, 0.0, 0.0, 0.0, 0.0, 0.0, 0.0, 0.0, 0.0, 0.0, 0.0, 1.0, 0.0, 0.0, 0.0, 0.0, 0.0, 0.0, 0.0, 0.0, 0.0, 0.0, 0.0, 0.0, 0.0, 0.0, 0.0, 0.0, 1.0], "bins": [-0.009826160967350006, -0.004421563353389502, 0.000983034260571003, 0.0063876318745315075, 0.011792229488492012, 0.01719682663679123, 0.022601425647735596, 0.028006022796034813, 0.03341061994433403, 0.0388152189552784, 0.044219814240932465, 0.04962441325187683, 0.0550290122628212, 0.060433607548475266, 0.06583820283412933, 0.0712428018450737, 0.07664740085601807, 0.08205199986696243, 0.0874565988779068, 0.09286119043827057, 0.09826578944921494, 0.1036703884601593, 0.10907498747110367, 0.11447958648204803, 0.1198841854929924, 0.12528878450393677, 0.13069337606430054, 0.1360979825258255, 0.14150257408618927, 0.14690718054771423, 0.152311772108078, 0.15771636366844177, 0.16312097012996674, 0.1685255616903305, 0.17393016815185547, 0.17933475971221924, 0.1847393661737442, 0.19014395773410797, 0.19554854929447174, 0.2009531557559967, 0.20635774731636047, 0.21176233887672424, 0.2171669453382492, 0.22257153689861298, 0.22797614336013794, 0.2333807349205017, 0.23878532648086548, 0.24418993294239044, 0.2495945394039154, 0.2549991309642792, 0.26040372252464294, 0.2658083438873291, 0.27121293544769287, 0.27661752700805664, 0.2820221185684204, 0.2874267101287842, 0.29283130168914795, 0.2982358932495117, 0.3036404848098755, 0.30904510617256165, 0.3144496977329254, 0.3198542892932892, 0.32525888085365295, 0.3306634724140167, 0.3360680937767029]}, "parameters/model.1.submodule.1.submodule.0.adn.A.weight": {"_type": "histogram", "values": [0.0, 0.0, 0.0, 0.0, 0.0, 0.0, 0.0, 0.0, 0.0, 0.0, 0.0, 0.0, 0.0, 0.0, 0.0, 0.0, 0.0, 0.0, 0.0, 0.0, 0.0, 0.0, 0.0, 0.0, 0.0, 0.0, 0.0, 0.0, 0.0, 0.0, 0.0, 0.0, 1.0, 0.0, 0.0, 0.0, 0.0, 0.0, 0.0, 0.0, 0.0, 0.0, 0.0, 0.0, 0.0, 0.0, 0.0, 0.0, 0.0, 0.0, 0.0, 0.0, 0.0, 0.0, 0.0, 0.0, 0.0, 0.0, 0.0, 0.0, 0.0, 0.0, 0.0, 0.0], "bins": [-0.7827223539352417, -0.7827223539352417, -0.7827223539352417, -0.7827223539352417, -0.7827223539352417, -0.7827223539352417, -0.7827223539352417, -0.7827223539352417, -0.7827223539352417, -0.7827223539352417, -0.7827223539352417, -0.7827223539352417, -0.7827223539352417, -0.7827223539352417, -0.7827223539352417, -0.7827223539352417, -0.7827223539352417, -0.7827223539352417, -0.7827223539352417, -0.7827223539352417, -0.7827223539352417, -0.7827223539352417, -0.7827223539352417, -0.7827223539352417, -0.7827223539352417, -0.7827223539352417, -0.7827223539352417, -0.7827223539352417, -0.7827223539352417, -0.7827223539352417, -0.7827223539352417, -0.7827223539352417, -0.7827223539352417, -0.7827223539352417, -0.7827223539352417, -0.7827223539352417, -0.7827223539352417, -0.7827223539352417, -0.7827223539352417, -0.7827223539352417, -0.7827223539352417, -0.7827223539352417, -0.7827223539352417, -0.7827223539352417, -0.7827223539352417, -0.7827223539352417, -0.7827223539352417, -0.7827223539352417, -0.7827223539352417, -0.7827223539352417, -0.7827223539352417, -0.7827223539352417, -0.7827223539352417, -0.7827223539352417, -0.7827223539352417, -0.7827223539352417, -0.7827223539352417, -0.7827223539352417, -0.7827223539352417, -0.7827223539352417, -0.7827223539352417, -0.7827223539352417, -0.7827223539352417, -0.7827223539352417, -0.7827223539352417]}, "parameters/model.1.submodule.1.submodule.1.submodule.0.conv.weight": {"_type": "histogram", "values": [2.0, 0.0, 1.0, 6.0, 2.0, 2.0, 1.0, 3.0, 5.0, 6.0, 7.0, 5.0, 11.0, 9.0, 18.0, 17.0, 26.0, 19.0, 24.0, 13.0, 14.0, 15.0, 14.0, 24.0, 24.0, 19.0, 35.0, 20.0, 28.0, 16.0, 20.0, 12.0, 11.0, 6.0, 7.0, 14.0, 9.0, 6.0, 19.0, 14.0, 22.0, 16.0, 18.0, 19.0, 17.0, 16.0, 24.0, 18.0, 20.0, 23.0, 20.0, 23.0, 28.0, 17.0, 13.0, 15.0, 10.0, 4.0, 8.0, 10.0, 7.0, 7.0, 1.0, 4.0], "bins": [-1.2749402523040771, -1.2364052534103394, -1.1978702545166016, -1.1593353748321533, -1.1208003759384155, -1.0822653770446777, -1.04373037815094, -1.0051953792572021, -0.9666604399681091, -0.9281254410743713, -0.8895905017852783, -0.8510555028915405, -0.8125205039978027, -0.7739855647087097, -0.7354505658149719, -0.6969156265258789, -0.6583806276321411, -0.6198456287384033, -0.5813106894493103, -0.5427756905555725, -0.5042407512664795, -0.4657057523727417, -0.4271707534790039, -0.3886357843875885, -0.3501008152961731, -0.3115658462047577, -0.2730308771133423, -0.2344958782196045, -0.1959609091281891, -0.15742594003677368, -0.11889095604419708, -0.08035597950220108, -0.04182112216949463, -0.0032861456274986267, 0.035248830914497375, 0.07378380745649338, 0.11231878399848938, 0.15085375308990479, 0.18938873708248138, 0.22792372107505798, 0.2664586901664734, 0.3049936592578888, 0.3435286283493042, 0.382063627243042, 0.4205985963344574, 0.4591335654258728, 0.4976685643196106, 0.5362035036087036, 0.5747385025024414, 0.6132735013961792, 0.6518084406852722, 0.69034343957901, 0.728878378868103, 0.7674133777618408, 0.8059483766555786, 0.8444833159446716, 0.8830183148384094, 0.9215533137321472, 0.9600882530212402, 0.998623251914978, 1.0371582508087158, 1.0756932497024536, 1.1142281293869019, 1.1527631282806396, 1.1912981271743774]}, "parameters/model.1.submodule.1.submodule.1.submodule.0.conv.bias": {"_type": "histogram", "values": [1.0, 1.0, 0.0, 0.0, 0.0, 0.0, 0.0, 0.0, 0.0, 0.0, 0.0, 0.0, 0.0, 1.0, 0.0, 0.0, 0.0, 0.0, 0.0, 1.0, 0.0, 0.0, 0.0, 0.0, 0.0, 0.0, 0.0, 0.0, 0.0, 0.0, 0.0, 0.0, 0.0, 0.0, 0.0, 0.0, 0.0, 0.0, 0.0, 0.0, 0.0, 0.0, 0.0, 0.0, 0.0, 0.0, 0.0, 1.0, 0.0, 0.0, 0.0, 0.0, 0.0, 0.0, 0.0, 1.0, 0.0, 0.0, 0.0, 0.0, 1.0, 0.0, 0.0, 1.0], "bins": [-0.5311058759689331, -0.5143022537231445, -0.49749863147735596, -0.48069503903388977, -0.4638914167881012, -0.4470877945423126, -0.43028417229652405, -0.4134805500507355, -0.3966769576072693, -0.3798733353614807, -0.36306971311569214, -0.34626612067222595, -0.3294624984264374, -0.3126588761806488, -0.29585525393486023, -0.27905163168907166, -0.2622480094432831, -0.2454443871974945, -0.22864077985286713, -0.21183715760707855, -0.19503355026245117, -0.1782299280166626, -0.16142630577087402, -0.14462269842624664, -0.12781906127929688, -0.1110154464840889, -0.09421183168888092, -0.07740820944309235, -0.06060459464788437, -0.04380097985267639, -0.026997361332178116, -0.01019374467432499, 0.006609857082366943, 0.02341347374022007, 0.040217090398073196, 0.05702070891857147, 0.07382432371377945, 0.09062793850898743, 0.107431560754776, 0.12423517554998398, 0.14103877544403076, 0.15784239768981934, 0.17464600503444672, 0.1914496272802353, 0.20825323462486267, 0.22505685687065125, 0.24186047911643982, 0.2586641013622284, 0.27546772360801697, 0.29227134585380554, 0.3090749680995941, 0.3258785605430603, 0.3426821827888489, 0.35948580503463745, 0.376289427280426, 0.3930930495262146, 0.4098966717720032, 0.42670029401779175, 0.4435039162635803, 0.4603075087070465, 0.4771111309528351, 0.49391475319862366, 0.5107183456420898, 0.5275219678878784, 0.544325590133667]}, "parameters/model.1.submodule.1.submodule.1.submodule.0.adn.A.weight": {"_type": "histogram", "values": [0.0, 0.0, 0.0, 0.0, 0.0, 0.0, 0.0, 0.0, 0.0, 0.0, 0.0, 0.0, 0.0, 0.0, 0.0, 0.0, 0.0, 0.0, 0.0, 0.0, 0.0, 0.0, 0.0, 0.0, 0.0, 0.0, 0.0, 0.0, 0.0, 0.0, 0.0, 0.0, 1.0, 0.0, 0.0, 0.0, 0.0, 0.0, 0.0, 0.0, 0.0, 0.0, 0.0, 0.0, 0.0, 0.0, 0.0, 0.0, 0.0, 0.0, 0.0, 0.0, 0.0, 0.0, 0.0, 0.0, 0.0, 0.0, 0.0, 0.0, 0.0, 0.0, 0.0, 0.0], "bins": [-0.7234518527984619, -0.7234518527984619, -0.7234518527984619, -0.7234518527984619, -0.7234518527984619, -0.7234518527984619, -0.7234518527984619, -0.7234518527984619, -0.7234518527984619, -0.7234518527984619, -0.7234518527984619, -0.7234518527984619, -0.7234518527984619, -0.7234518527984619, -0.7234518527984619, -0.7234518527984619, -0.7234518527984619, -0.7234518527984619, -0.7234518527984619, -0.7234518527984619, -0.7234518527984619, -0.7234518527984619, -0.7234518527984619, -0.7234518527984619, -0.7234518527984619, -0.7234518527984619, -0.7234518527984619, -0.7234518527984619, -0.7234518527984619, -0.7234518527984619, -0.7234518527984619, -0.7234518527984619, -0.7234518527984619, -0.7234518527984619, -0.7234518527984619, -0.7234518527984619, -0.7234518527984619, -0.7234518527984619, -0.7234518527984619, -0.7234518527984619, -0.7234518527984619, -0.7234518527984619, -0.7234518527984619, -0.7234518527984619, -0.7234518527984619, -0.7234518527984619, -0.7234518527984619, -0.7234518527984619, -0.7234518527984619, -0.7234518527984619, -0.7234518527984619, -0.7234518527984619, -0.7234518527984619, -0.7234518527984619, -0.7234518527984619, -0.7234518527984619, -0.7234518527984619, -0.7234518527984619, -0.7234518527984619, -0.7234518527984619, -0.7234518527984619, -0.7234518527984619, -0.7234518527984619, -0.7234518527984619, -0.7234518527984619]}, "parameters/model.1.submodule.1.submodule.1.submodule.1.submodule.conv.weight": {"_type": "histogram", "values": [1.0, 1.0, 0.0, 2.0, 4.0, 7.0, 10.0, 15.0, 24.0, 28.0, 32.0, 46.0, 49.0, 60.0, 90.0, 75.0, 103.0, 107.0, 111.0, 108.0, 73.0, 58.0, 58.0, 63.0, 52.0, 60.0, 59.0, 60.0, 49.0, 63.0, 38.0, 60.0, 54.0, 46.0, 57.0, 43.0, 49.0, 39.0, 69.0, 62.0, 75.0, 82.0, 109.0, 104.0, 141.0, 159.0, 146.0, 152.0, 105.0, 97.0, 71.0, 60.0, 49.0, 38.0, 24.0, 10.0, 16.0, 12.0, 4.0, 10.0, 2.0, 3.0, 0.0, 2.0], "bins": [-1.3408321142196655, -1.3002209663391113, -1.2596098184585571, -1.218998670578003, -1.1783874034881592, -1.137776255607605, -1.0971651077270508, -1.0565539598464966, -1.0159428119659424, -0.9753316640853882, -0.934720516204834, -0.894109308719635, -0.8534981608390808, -0.8128870129585266, -0.7722758054733276, -0.7316646575927734, -0.6910535097122192, -0.650442361831665, -0.6098312139511108, -0.5692200064659119, -0.5286088585853577, -0.48799771070480347, -0.4473865330219269, -0.4067753553390503, -0.3661642074584961, -0.3255530595779419, -0.2849418818950653, -0.24433071911334991, -0.20371955633163452, -0.16310839354991913, -0.12249723076820374, -0.08188606798648834, -0.0412750244140625, -0.0006638616323471069, 0.039947301149368286, 0.08055846393108368, 0.12116962671279907, 0.16178078949451447, 0.20239195227622986, 0.24300311505794525, 0.28361427783966064, 0.32422542572021484, 0.36483660340309143, 0.405447781085968, 0.4460589289665222, 0.4866700768470764, 0.5272812843322754, 0.5678924322128296, 0.6085035800933838, 0.649114727973938, 0.6897258758544922, 0.7303370833396912, 0.7709482312202454, 0.8115593791007996, 0.8521705865859985, 0.8927817344665527, 0.9333928823471069, 0.9740040302276611, 1.0146151781082153, 1.0552263259887695, 1.0958375930786133, 1.1364487409591675, 1.1770598888397217, 1.2176710367202759, 1.25828218460083]}, "parameters/model.1.submodule.1.submodule.1.submodule.1.submodule.conv.bias": {"_type": "histogram", "values": [1.0, 0.0, 0.0, 0.0, 0.0, 0.0, 0.0, 0.0, 0.0, 0.0, 0.0, 0.0, 0.0, 0.0, 2.0, 0.0, 0.0, 0.0, 1.0, 0.0, 0.0, 0.0, 0.0, 0.0, 0.0, 1.0, 0.0, 1.0, 1.0, 0.0, 0.0, 0.0, 0.0, 0.0, 0.0, 0.0, 0.0, 1.0, 0.0, 0.0, 1.0, 0.0, 0.0, 0.0, 1.0, 1.0, 0.0, 0.0, 0.0, 0.0, 0.0, 0.0, 1.0, 0.0, 1.0, 0.0, 0.0, 0.0, 0.0, 1.0, 1.0, 0.0, 0.0, 1.0], "bins": [-0.8250868320465088, -0.8007010817527771, -0.7763152718544006, -0.751929521560669, -0.7275437712669373, -0.7031580209732056, -0.6787722110748291, -0.6543864607810974, -0.6300007104873657, -0.605614960193634, -0.5812291502952576, -0.5568434000015259, -0.5324576497077942, -0.5080718994140625, -0.4836861193180084, -0.45930033922195435, -0.43491455912590027, -0.4105287790298462, -0.3861430287361145, -0.3617572486400604, -0.33737149834632874, -0.31298571825027466, -0.28859996795654297, -0.2642141878604889, -0.23982840776443481, -0.21544264256954193, -0.19105687737464905, -0.16667111217975616, -0.14228534698486328, -0.1178995743393898, -0.09351380169391632, -0.06912803649902344, -0.04474228620529175, -0.020356519147753716, 0.004029247909784317, 0.02841501496732235, 0.05280078202486038, 0.07718654721975327, 0.10157231986522675, 0.12595808506011963, 0.15034383535385132, 0.1747296005487442, 0.19911536574363708, 0.22350113093852997, 0.24788689613342285, 0.27227267622947693, 0.2966584265232086, 0.3210442066192627, 0.3454299867153168, 0.36981576681137085, 0.39420151710510254, 0.4185872972011566, 0.4429730474948883, 0.4673588275909424, 0.4917445778846741, 0.5161303281784058, 0.5405161380767822, 0.5649018883705139, 0.5892876982688904, 0.6136734485626221, 0.6380591988563538, 0.6624449491500854, 0.6868307590484619, 0.7112165093421936, 0.7356022596359253]}, "parameters/model.1.submodule.1.submodule.1.submodule.1.submodule.adn.A.weight": {"_type": "histogram", "values": [0.0, 0.0, 0.0, 0.0, 0.0, 0.0, 0.0, 0.0, 0.0, 0.0, 0.0, 0.0, 0.0, 0.0, 0.0, 0.0, 0.0, 0.0, 0.0, 0.0, 0.0, 0.0, 0.0, 0.0, 0.0, 0.0, 0.0, 0.0, 0.0, 0.0, 0.0, 0.0, 1.0, 0.0, 0.0, 0.0, 0.0, 0.0, 0.0, 0.0, 0.0, 0.0, 0.0, 0.0, 0.0, 0.0, 0.0, 0.0, 0.0, 0.0, 0.0, 0.0, 0.0, 0.0, 0.0, 0.0, 0.0, 0.0, 0.0, 0.0, 0.0, 0.0, 0.0, 0.0], "bins": [-0.18743440508842468, -0.18743440508842468, -0.18743440508842468, -0.18743440508842468, -0.18743440508842468, -0.18743440508842468, -0.18743440508842468, -0.18743440508842468, -0.18743440508842468, -0.18743440508842468, -0.18743440508842468, -0.18743440508842468, -0.18743440508842468, -0.18743440508842468, -0.18743440508842468, -0.18743440508842468, -0.18743440508842468, -0.18743440508842468, -0.18743440508842468, -0.18743440508842468, -0.18743440508842468, -0.18743440508842468, -0.18743440508842468, -0.18743440508842468, -0.18743440508842468, -0.18743440508842468, -0.18743440508842468, -0.18743440508842468, -0.18743440508842468, -0.18743440508842468, -0.18743440508842468, -0.18743440508842468, -0.18743440508842468, -0.18743440508842468, -0.18743440508842468, -0.18743440508842468, -0.18743440508842468, -0.18743440508842468, -0.18743440508842468, -0.18743440508842468, -0.18743440508842468, -0.18743440508842468, -0.18743440508842468, -0.18743440508842468, -0.18743440508842468, -0.18743440508842468, -0.18743440508842468, -0.18743440508842468, -0.18743440508842468, -0.18743440508842468, -0.18743440508842468, -0.18743440508842468, -0.18743440508842468, -0.18743440508842468, -0.18743440508842468, -0.18743440508842468, -0.18743440508842468, -0.18743440508842468, -0.18743440508842468, -0.18743440508842468, -0.18743440508842468, -0.18743440508842468, -0.18743440508842468, -0.18743440508842468, -0.18743440508842468]}, "parameters/model.1.submodule.1.submodule.1.submodule.2.conv.weight": {"_type": "histogram", "values": [1.0, 0.0, 0.0, 1.0, 1.0, 3.0, 0.0, 4.0, 14.0, 18.0, 16.0, 28.0, 35.0, 47.0, 47.0, 54.0, 47.0, 43.0, 47.0, 50.0, 64.0, 51.0, 61.0, 58.0, 50.0, 38.0, 44.0, 49.0, 51.0, 30.0, 43.0, 28.0, 42.0, 36.0, 35.0, 29.0, 26.0, 28.0, 46.0, 35.0, 34.0, 53.0, 47.0, 59.0, 53.0, 62.0, 71.0, 90.0, 101.0, 105.0, 102.0, 115.0, 101.0, 74.0, 77.0, 48.0, 28.0, 25.0, 20.0, 9.0, 8.0, 7.0, 1.0, 2.0], "bins": [-1.2197253704071045, -1.1839526891708374, -1.1481800079345703, -1.1124073266983032, -1.0766346454620361, -1.040861964225769, -1.005089282989502, -0.9693166017532349, -0.9335439205169678, -0.8977712392807007, -0.8619985580444336, -0.8262258768081665, -0.7904531955718994, -0.7546805143356323, -0.7189078330993652, -0.6831351518630981, -0.647362470626831, -0.611589789390564, -0.5758171081542969, -0.5400444269180298, -0.5042717456817627, -0.4684990644454956, -0.4327263832092285, -0.3969537019729614, -0.36118102073669434, -0.32540833950042725, -0.28963565826416016, -0.25386297702789307, -0.21809029579162598, -0.1823176145553589, -0.1465449333190918, -0.11077225208282471, -0.07499957084655762, -0.03922688961029053, -0.0034542083740234375, 0.03231847286224365, 0.06809115409851074, 0.10386383533477783, 0.13963651657104492, 0.175409197807312, 0.2111818790435791, 0.2469545602798462, 0.2827272415161133, 0.31849992275238037, 0.35427260398864746, 0.39004528522491455, 0.42581796646118164, 0.46159064769744873, 0.4973633289337158, 0.5331360101699829, 0.56890869140625, 0.6046813726425171, 0.6404540538787842, 0.6762267351150513, 0.7119994163513184, 0.7477720975875854, 0.7835447788238525, 0.8193174600601196, 0.8550901412963867, 0.8908628225326538, 0.9266355037689209, 0.962408185005188, 0.9981808662414551, 1.0339535474777222, 1.0697262287139893]}, "parameters/model.1.submodule.1.submodule.1.submodule.2.conv.bias": {"_type": "histogram", "values": [1.0, 0.0, 0.0, 0.0, 0.0, 0.0, 0.0, 0.0, 1.0, 0.0, 0.0, 0.0, 0.0, 0.0, 0.0, 0.0, 0.0, 0.0, 0.0, 0.0, 0.0, 0.0, 0.0, 0.0, 0.0, 0.0, 0.0, 0.0, 0.0, 0.0, 0.0, 0.0, 0.0, 0.0, 0.0, 0.0, 0.0, 0.0, 0.0, 0.0, 0.0, 0.0, 0.0, 0.0, 0.0, 0.0, 0.0, 0.0, 0.0, 0.0, 0.0, 0.0, 0.0, 0.0, 1.0, 0.0, 0.0, 0.0, 0.0, 0.0, 0.0, 0.0, 0.0, 1.0], "bins": [-0.04251604899764061, -0.039557214826345444, -0.036598384380340576, -0.03363955020904541, -0.030680716037750244, -0.027721881866455078, -0.02476304955780506, -0.021804217249155045, -0.01884538307785988, -0.015886548906564713, -0.012927716597914696, -0.009968883357942104, -0.007010050117969513, -0.0040512168779969215, -0.0010923836380243301, 0.0018664496019482613, 0.004825282841920853, 0.007784116081893444, 0.010742949321866035, 0.013701782561838627, 0.016660615801811218, 0.019619449973106384, 0.0225782822817564, 0.025537114590406418, 0.028495948761701584, 0.03145478293299675, 0.03441361337900162, 0.03737244755029678, 0.04033128172159195, 0.043290115892887115, 0.04624895006418228, 0.04920778051018715, 0.05216661095619202, 0.05512544512748718, 0.05808427929878235, 0.061043109744787216, 0.06400194764137268, 0.06696077436208725, 0.06991960853338242, 0.07287844270467758, 0.07583727687597275, 0.07879611104726791, 0.08175494521856308, 0.08471377938985825, 0.08767260611057281, 0.09063144028186798, 0.09359027445316315, 0.09654910862445831, 0.09950794279575348, 0.10246677696704865, 0.10542561113834381, 0.10838444530963898, 0.11134327948093414, 0.11430210620164871, 0.11726094037294388, 0.12021977454423904, 0.12317860871553421, 0.12613743543624878, 0.12909626960754395, 0.1320551037788391, 0.13501393795013428, 0.13797277212142944, 0.1409316062927246, 0.14389044046401978, 0.14684927463531494]}, "parameters/model.1.submodule.1.submodule.1.submodule.2.adn.A.weight": {"_type": "histogram", "values": [0.0, 0.0, 0.0, 0.0, 0.0, 0.0, 0.0, 0.0, 0.0, 0.0, 0.0, 0.0, 0.0, 0.0, 0.0, 0.0, 0.0, 0.0, 0.0, 0.0, 0.0, 0.0, 0.0, 0.0, 0.0, 0.0, 0.0, 0.0, 0.0, 0.0, 0.0, 0.0, 1.0, 0.0, 0.0, 0.0, 0.0, 0.0, 0.0, 0.0, 0.0, 0.0, 0.0, 0.0, 0.0, 0.0, 0.0, 0.0, 0.0, 0.0, 0.0, 0.0, 0.0, 0.0, 0.0, 0.0, 0.0, 0.0, 0.0, 0.0, 0.0, 0.0, 0.0, 0.0], "bins": [0.8625637888908386, 0.8625637888908386, 0.8625637888908386, 0.8625637888908386, 0.8625637888908386, 0.8625637888908386, 0.8625637888908386, 0.8625637888908386, 0.8625637888908386, 0.8625637888908386, 0.8625637888908386, 0.8625637888908386, 0.8625637888908386, 0.8625637888908386, 0.8625637888908386, 0.8625637888908386, 0.8625637888908386, 0.8625637888908386, 0.8625637888908386, 0.8625637888908386, 0.8625637888908386, 0.8625637888908386, 0.8625637888908386, 0.8625637888908386, 0.8625637888908386, 0.8625637888908386, 0.8625637888908386, 0.8625637888908386, 0.8625637888908386, 0.8625637888908386, 0.8625637888908386, 0.8625637888908386, 0.8625637888908386, 0.8625637888908386, 0.8625637888908386, 0.8625637888908386, 0.8625637888908386, 0.8625637888908386, 0.8625637888908386, 0.8625637888908386, 0.8625637888908386, 0.8625637888908386, 0.8625637888908386, 0.8625637888908386, 0.8625637888908386, 0.8625637888908386, 0.8625637888908386, 0.8625637888908386, 0.8625637888908386, 0.8625637888908386, 0.8625637888908386, 0.8625637888908386, 0.8625637888908386, 0.8625637888908386, 0.8625637888908386, 0.8625637888908386, 0.8625637888908386, 0.8625637888908386, 0.8625637888908386, 0.8625637888908386, 0.8625637888908386, 0.8625637888908386, 0.8625637888908386, 0.8625637888908386, 0.8625637888908386]}, "parameters/model.1.submodule.1.submodule.2.conv.weight": {"_type": "histogram", "values": [3.0, 1.0, 0.0, 1.0, 2.0, 2.0, 1.0, 1.0, 1.0, 2.0, 1.0, 1.0, 2.0, 5.0, 3.0, 0.0, 4.0, 7.0, 8.0, 8.0, 7.0, 7.0, 10.0, 7.0, 13.0, 12.0, 11.0, 9.0, 12.0, 8.0, 8.0, 5.0, 6.0, 8.0, 4.0, 12.0, 9.0, 5.0, 15.0, 16.0, 11.0, 14.0, 12.0, 10.0, 12.0, 12.0, 10.0, 7.0, 4.0, 10.0, 5.0, 9.0, 5.0, 8.0, 8.0, 5.0, 9.0, 11.0, 6.0, 8.0, 7.0, 6.0, 3.0, 3.0], "bins": [-1.1901267766952515, -1.1524057388305664, -1.1146845817565918, -1.0769635438919067, -1.0392425060272217, -1.0015214681625366, -0.9638003706932068, -0.926079273223877, -0.8883582353591919, -0.8506371974945068, -0.812916100025177, -0.7751950025558472, -0.7374739646911621, -0.699752926826477, -0.6620318293571472, -0.6243107318878174, -0.5865896940231323, -0.5488686561584473, -0.5111475586891174, -0.47342649102211, -0.43570542335510254, -0.3979843556880951, -0.36026328802108765, -0.3225422203540802, -0.28482115268707275, -0.2471000850200653, -0.20937901735305786, -0.17165794968605042, -0.13393688201904297, -0.09621581435203552, -0.058494746685028076, -0.02077367901802063, 0.016947507858276367, 0.054668575525283813, 0.09238964319229126, 0.1301107108592987, 0.16783177852630615, 0.2055528461933136, 0.24327391386032104, 0.2809949815273285, 0.31871604919433594, 0.3564371168613434, 0.39415818452835083, 0.4318792521953583, 0.4696003198623657, 0.5073213577270508, 0.5450424551963806, 0.5827635526657104, 0.6204845905303955, 0.6582056283950806, 0.6959267258644104, 0.7336478233337402, 0.7713688611984253, 0.8090898990631104, 0.8468109965324402, 0.88453209400177, 0.9222531318664551, 0.9599741697311401, 0.99769526720047, 1.0354163646697998, 1.0731374025344849, 1.11085844039917, 1.1485795974731445, 1.1863006353378296, 1.2240216732025146]}, "parameters/model.1.submodule.1.submodule.2.conv.bias": {"_type": "histogram", "values": [1.0, 0.0, 0.0, 0.0, 0.0, 0.0, 0.0, 0.0, 0.0, 0.0, 0.0, 0.0, 0.0, 0.0, 0.0, 0.0, 0.0, 0.0, 0.0, 0.0, 0.0, 0.0, 0.0, 0.0, 0.0, 0.0, 0.0, 0.0, 0.0, 0.0, 0.0, 0.0, 0.0, 0.0, 0.0, 0.0, 0.0, 0.0, 0.0, 0.0, 0.0, 0.0, 0.0, 0.0, 0.0, 0.0, 0.0, 0.0, 0.0, 0.0, 0.0, 0.0, 0.0, 0.0, 0.0, 0.0, 0.0, 0.0, 0.0, 0.0, 0.0, 0.0, 0.0, 1.0], "bins": [-0.6735451221466064, -0.6581994891166687, -0.6428539156913757, -0.627508282661438, -0.6121626496315002, -0.5968170762062073, -0.5814714431762695, -0.5661258101463318, -0.550780177116394, -0.5354345440864563, -0.5200889706611633, -0.5047433376312256, -0.48939770460128784, -0.4740521013736725, -0.45870649814605713, -0.4433608651161194, -0.4280152916908264, -0.41266968846321106, -0.3973240554332733, -0.38197845220565796, -0.3666328191757202, -0.35128721594810486, -0.3359416127204895, -0.32059597969055176, -0.3052503764629364, -0.28990477323532104, -0.2745591402053833, -0.25921353697776794, -0.2438679188489914, -0.22852230072021484, -0.2131766974925995, -0.19783107936382294, -0.182485431432724, -0.16713981330394745, -0.1517941951751709, -0.13644859194755554, -0.12110297381877899, -0.10575735569000244, -0.09041174501180649, -0.07506613433361053, -0.059720516204833984, -0.04437490180134773, -0.02902928739786148, -0.013683672994375229, 0.001661941409111023, 0.017007555812597275, 0.03235317021608353, 0.04769878461956978, 0.06304439902305603, 0.07839001715183258, 0.09373562783002853, 0.10908123850822449, 0.12442685663700104, 0.1397724747657776, 0.15511807799339294, 0.1704636961221695, 0.18580931425094604, 0.2011549323797226, 0.21650055050849915, 0.2318461537361145, 0.24719177186489105, 0.2625373899936676, 0.27788299322128296, 0.2932286262512207, 0.30857422947883606]}, "parameters/model.1.submodule.1.submodule.2.adn.A.weight": {"_type": "histogram", "values": [0.0, 0.0, 0.0, 0.0, 0.0, 0.0, 0.0, 0.0, 0.0, 0.0, 0.0, 0.0, 0.0, 0.0, 0.0, 0.0, 0.0, 0.0, 0.0, 0.0, 0.0, 0.0, 0.0, 0.0, 0.0, 0.0, 0.0, 0.0, 0.0, 0.0, 0.0, 0.0, 1.0, 0.0, 0.0, 0.0, 0.0, 0.0, 0.0, 0.0, 0.0, 0.0, 0.0, 0.0, 0.0, 0.0, 0.0, 0.0, 0.0, 0.0, 0.0, 0.0, 0.0, 0.0, 0.0, 0.0, 0.0, 0.0, 0.0, 0.0, 0.0, 0.0, 0.0, 0.0], "bins": [0.22350960969924927, 0.22350960969924927, 0.22350960969924927, 0.22350960969924927, 0.22350960969924927, 0.22350960969924927, 0.22350960969924927, 0.22350960969924927, 0.22350960969924927, 0.22350960969924927, 0.22350960969924927, 0.22350960969924927, 0.22350960969924927, 0.22350960969924927, 0.22350960969924927, 0.22350960969924927, 0.22350960969924927, 0.22350960969924927, 0.22350960969924927, 0.22350960969924927, 0.22350960969924927, 0.22350960969924927, 0.22350960969924927, 0.22350960969924927, 0.22350960969924927, 0.22350960969924927, 0.22350960969924927, 0.22350960969924927, 0.22350960969924927, 0.22350960969924927, 0.22350960969924927, 0.22350960969924927, 0.22350960969924927, 0.22350960969924927, 0.22350960969924927, 0.22350960969924927, 0.22350960969924927, 0.22350960969924927, 0.22350960969924927, 0.22350960969924927, 0.22350960969924927, 0.22350960969924927, 0.22350960969924927, 0.22350960969924927, 0.22350960969924927, 0.22350960969924927, 0.22350960969924927, 0.22350960969924927, 0.22350960969924927, 0.22350960969924927, 0.22350960969924927, 0.22350960969924927, 0.22350960969924927, 0.22350960969924927, 0.22350960969924927, 0.22350960969924927, 0.22350960969924927, 0.22350960969924927, 0.22350960969924927, 0.22350960969924927, 0.22350960969924927, 0.22350960969924927, 0.22350960969924927, 0.22350960969924927, 0.22350960969924927]}, "parameters/model.1.submodule.2.conv.weight": {"_type": "histogram", "values": [2.0, 0.0, 2.0, 2.0, 1.0, 2.0, 0.0, 2.0, 1.0, 2.0, 2.0, 4.0, 1.0, 4.0, 1.0, 3.0, 3.0, 1.0, 3.0, 2.0, 3.0, 4.0, 3.0, 2.0, 1.0, 3.0, 4.0, 5.0, 6.0, 6.0, 4.0, 1.0, 4.0, 2.0, 4.0, 5.0, 2.0, 7.0, 4.0, 6.0, 3.0, 6.0, 4.0, 5.0, 0.0, 1.0, 4.0, 3.0, 6.0, 2.0, 4.0, 5.0, 4.0, 8.0, 7.0, 2.0, 4.0, 8.0, 6.0, 5.0, 7.0, 2.0, 3.0, 3.0], "bins": [-1.3252713680267334, -1.2870815992355347, -1.248891830444336, -1.2107021808624268, -1.172512412071228, -1.1343226432800293, -1.0961328744888306, -1.0579432249069214, -1.0197534561157227, -0.9815636873245239, -0.94337397813797, -0.9051842093467712, -0.8669945001602173, -0.8288047313690186, -0.7906150221824646, -0.7524252533912659, -0.7142354846000671, -0.6760457158088684, -0.6378560066223145, -0.5996662378311157, -0.5614765286445618, -0.523286759853363, -0.4850970208644867, -0.44690728187561035, -0.4087175130844116, -0.3705277740955353, -0.33233803510665894, -0.2941482961177826, -0.25595855712890625, -0.2177688032388687, -0.17957904934883118, -0.14138931035995483, -0.10319960117340088, -0.06500986218452454, -0.026820115745067596, 0.011369626969099045, 0.049559369683265686, 0.08774910867214203, 0.12593886256217957, 0.1641286015510559, 0.20231831073760986, 0.2405080497264862, 0.27869778871536255, 0.3168875277042389, 0.35507726669311523, 0.39326703548431396, 0.4314567744731903, 0.46964651346206665, 0.5078362822532654, 0.5460260510444641, 0.5842157602310181, 0.6224055290222168, 0.6605952382087708, 0.6987850069999695, 0.7369747161865234, 0.7751644849777222, 0.8133542537689209, 0.8515440225601196, 0.8897337317466736, 0.9279235005378723, 0.9661132097244263, 1.004302978515625, 1.0424927473068237, 1.080682396888733, 1.1188721656799316]}, "parameters/model.1.submodule.2.conv.bias": {"_type": "histogram", "values": [1.0, 0.0, 0.0, 0.0, 0.0, 0.0, 0.0, 0.0, 0.0, 0.0, 0.0, 0.0, 0.0, 0.0, 0.0, 0.0, 0.0, 0.0, 0.0, 0.0, 0.0, 0.0, 0.0, 0.0, 0.0, 0.0, 0.0, 0.0, 0.0, 0.0, 0.0, 0.0, 0.0, 0.0, 0.0, 0.0, 0.0, 0.0, 0.0, 0.0, 0.0, 0.0, 0.0, 0.0, 0.0, 0.0, 0.0, 0.0, 0.0, 0.0, 0.0, 0.0, 0.0, 0.0, 0.0, 0.0, 0.0, 0.0, 0.0, 0.0, 0.0, 0.0, 0.0, 1.0], "bins": [-0.4638887643814087, -0.4468351900577545, -0.42978161573410034, -0.41272804141044617, -0.395674467086792, -0.3786209225654602, -0.36156734824180603, -0.34451377391815186, -0.3274601995944977, -0.3104066252708435, -0.29335305094718933, -0.27629947662353516, -0.25924593210220337, -0.242192342877388, -0.22513878345489502, -0.20808520913124084, -0.19103163480758667, -0.1739780604839325, -0.15692448616027832, -0.13987092673778534, -0.12281735241413116, -0.10576377809047699, -0.08871021121740341, -0.07165664434432983, -0.05460307002067566, -0.03754949942231178, -0.020495928823947906, -0.00344235822558403, 0.013611212372779846, 0.030664782971143723, 0.0477183535695076, 0.06477192044258118, 0.08182555437088013, 0.0988791286945343, 0.11593269556760788, 0.13298626244068146, 0.15003983676433563, 0.1670934110879898, 0.1841469705104828, 0.20120054483413696, 0.21825411915779114, 0.2353076934814453, 0.2523612678050995, 0.26941484212875366, 0.28646838665008545, 0.3035219609737396, 0.3205755352973938, 0.337629109621048, 0.35468268394470215, 0.3717362582683563, 0.3887898325920105, 0.4058434069156647, 0.42289698123931885, 0.43995052576065063, 0.4570041000843048, 0.474057674407959, 0.49111124873161316, 0.5081648230552673, 0.5252183675765991, 0.5422719717025757, 0.5593255162239075, 0.576379120349884, 0.5934326648712158, 0.6104862689971924, 0.6275398135185242]}, "parameters/model.1.submodule.2.adn.A.weight": {"_type": "histogram", "values": [0.0, 0.0, 0.0, 0.0, 0.0, 0.0, 0.0, 0.0, 0.0, 0.0, 0.0, 0.0, 0.0, 0.0, 0.0, 0.0, 0.0, 0.0, 0.0, 0.0, 0.0, 0.0, 0.0, 0.0, 0.0, 0.0, 0.0, 0.0, 0.0, 0.0, 0.0, 0.0, 1.0, 0.0, 0.0, 0.0, 0.0, 0.0, 0.0, 0.0, 0.0, 0.0, 0.0, 0.0, 0.0, 0.0, 0.0, 0.0, 0.0, 0.0, 0.0, 0.0, 0.0, 0.0, 0.0, 0.0, 0.0, 0.0, 0.0, 0.0, 0.0, 0.0, 0.0, 0.0], "bins": [-0.2716112434864044, -0.2716112434864044, -0.2716112434864044, -0.2716112434864044, -0.2716112434864044, -0.2716112434864044, -0.2716112434864044, -0.2716112434864044, -0.2716112434864044, -0.2716112434864044, -0.2716112434864044, -0.2716112434864044, -0.2716112434864044, -0.2716112434864044, -0.2716112434864044, -0.2716112434864044, -0.2716112434864044, -0.2716112434864044, -0.2716112434864044, -0.2716112434864044, -0.2716112434864044, -0.2716112434864044, -0.2716112434864044, -0.2716112434864044, -0.2716112434864044, -0.2716112434864044, -0.2716112434864044, -0.2716112434864044, -0.2716112434864044, -0.2716112434864044, -0.2716112434864044, -0.2716112434864044, -0.2716112434864044, -0.2716112434864044, -0.2716112434864044, -0.2716112434864044, -0.2716112434864044, -0.2716112434864044, -0.2716112434864044, -0.2716112434864044, -0.2716112434864044, -0.2716112434864044, -0.2716112434864044, -0.2716112434864044, -0.2716112434864044, -0.2716112434864044, -0.2716112434864044, -0.2716112434864044, -0.2716112434864044, -0.2716112434864044, -0.2716112434864044, -0.2716112434864044, -0.2716112434864044, -0.2716112434864044, -0.2716112434864044, -0.2716112434864044, -0.2716112434864044, -0.2716112434864044, -0.2716112434864044, -0.2716112434864044, -0.2716112434864044, -0.2716112434864044, -0.2716112434864044, -0.2716112434864044, -0.2716112434864044]}, "parameters/model.2.conv.weight": {"_type": "histogram", "values": [1.0, 1.0, 1.0, 0.0, 0.0, 0.0, 3.0, 3.0, 2.0, 1.0, 0.0, 1.0, 3.0, 0.0, 3.0, 0.0, 2.0, 2.0, 2.0, 1.0, 2.0, 2.0, 2.0, 4.0, 2.0, 1.0, 6.0, 8.0, 10.0, 11.0, 22.0, 22.0, 13.0, 13.0, 17.0, 7.0, 7.0, 1.0, 3.0, 0.0, 1.0, 2.0, 0.0, 0.0, 0.0, 1.0, 0.0, 1.0, 0.0, 2.0, 2.0, 1.0, 1.0, 0.0, 2.0, 1.0, 0.0, 2.0, 0.0, 2.0, 5.0, 7.0, 3.0, 4.0], "bins": [-1.0380570888519287, -1.007587194442749, -0.9771173000335693, -0.9466474056243896, -0.91617751121521, -0.885707676410675, -0.8552377820014954, -0.8247678875923157, -0.794297993183136, -0.7638280987739563, -0.7333582043647766, -0.7028883099555969, -0.672418475151062, -0.6419485807418823, -0.6114786863327026, -0.581008791923523, -0.5505388975143433, -0.5200690031051636, -0.4895991086959839, -0.4591292440891266, -0.4286593496799469, -0.3981894552707672, -0.3677195906639099, -0.3372496962547302, -0.30677980184555054, -0.27630990743637085, -0.24584002792835236, -0.21537014842033386, -0.18490025401115417, -0.1544303596019745, -0.123960480093956, -0.0934905931353569, -0.06302070617675781, -0.03255081921815872, -0.0020809322595596313, 0.02838895469903946, 0.05885884165763855, 0.08932872861623764, 0.11979861557483673, 0.15026849508285522, 0.1807383894920349, 0.2112082839012146, 0.2416781634092331, 0.2721480429172516, 0.3026179373264313, 0.33308783173561096, 0.36355769634246826, 0.39402759075164795, 0.42449748516082764, 0.4549673795700073, 0.485437273979187, 0.5159071683883667, 0.5463770627975464, 0.5768468976020813, 0.607316792011261, 0.6377866864204407, 0.6682565808296204, 0.6987264752388, 0.7291963696479797, 0.7596662640571594, 0.7901360988616943, 0.820605993270874, 0.8510758876800537, 0.8815457820892334, 0.9120156764984131]}, "parameters/model.2.conv.bias": {"_type": "histogram", "values": [1.0, 0.0, 0.0, 0.0, 0.0, 0.0, 0.0, 0.0, 0.0, 0.0, 0.0, 0.0, 0.0, 0.0, 0.0, 0.0, 0.0, 0.0, 0.0, 0.0, 0.0, 0.0, 0.0, 0.0, 0.0, 0.0, 0.0, 0.0, 0.0, 0.0, 0.0, 0.0, 0.0, 0.0, 0.0, 0.0, 0.0, 0.0, 0.0, 0.0, 0.0, 0.0, 0.0, 0.0, 0.0, 0.0, 0.0, 0.0, 0.0, 0.0, 0.0, 0.0, 0.0, 0.0, 0.0, 0.0, 0.0, 0.0, 0.0, 0.0, 0.0, 0.0, 0.0, 1.0], "bins": [-1.1878679990768433, -1.1669409275054932, -1.1460139751434326, -1.1250869035720825, -1.1041598320007324, -1.0832328796386719, -1.0623058080673218, -1.0413788557052612, -1.0204517841339111, -0.9995247721672058, -0.9785977005958557, -0.9576706886291504, -0.9367436766624451, -0.9158166646957397, -0.8948895931243896, -0.8739625811576843, -0.853035569190979, -0.8321085572242737, -0.8111814856529236, -0.7902544736862183, -0.7693274617195129, -0.7484004497528076, -0.7274733781814575, -0.7065463662147522, -0.6856192946434021, -0.6646922826766968, -0.6437652111053467, -0.6228381991386414, -0.601911187171936, -0.5809841752052307, -0.5600571036338806, -0.5391300916671753, -0.5182030200958252, -0.4972759783267975, -0.47634896636009216, -0.45542192459106445, -0.43449491262435913, -0.4135678708553314, -0.3926408588886261, -0.3717138171195984, -0.35078683495521545, -0.32985979318618774, -0.3089327812194824, -0.2880057394504547, -0.2670787274837494, -0.24615168571472168, -0.22522465884685516, -0.20429763197898865, -0.18337059020996094, -0.16244356334209442, -0.1415165364742279, -0.12058950215578079, -0.09966247528791428, -0.07873544842004776, -0.057808417826890945, -0.03688138723373413, -0.015954360365867615, 0.004972668364644051, 0.025899697095155716, 0.04682672768831253, 0.06775375455617905, 0.08868078142404556, 0.10960781574249268, 0.1305348426103592, 0.1514618694782257]}, "gradients/model.2.conv.weight": {"_type": "histogram", "values": [22.0, 5.0, 0.0, 0.0, 0.0, 0.0, 0.0, 0.0, 0.0, 0.0, 0.0, 0.0, 0.0, 6.0, 21.0, 0.0, 0.0, 0.0, 0.0, 0.0, 0.0, 0.0, 0.0, 0.0, 0.0, 0.0, 0.0, 0.0, 2.0, 16.0, 9.0, 0.0, 0.0, 0.0, 0.0, 0.0, 13.0, 13.0, 1.0, 0.0, 0.0, 0.0, 0.0, 0.0, 0.0, 0.0, 0.0, 0.0, 0.0, 0.0, 0.0, 0.0, 0.0, 0.0, 0.0, 0.0, 0.0, 0.0, 0.0, 0.0, 0.0, 0.0, 0.0, 108.0], "bins": [-0.0431707464158535, -0.04249504581093788, -0.04181934520602226, -0.04114364832639694, -0.04046794772148132, -0.039792247116565704, -0.039116546511650085, -0.038440849632024765, -0.037765149027109146, -0.03708944842219353, -0.03641374781727791, -0.03573805093765259, -0.03506235033273697, -0.03438664972782135, -0.03371094912290573, -0.03303525224328041, -0.03235954791307449, -0.031683847308158875, -0.031008148565888405, -0.030332447960972786, -0.029656749218702316, -0.028981048613786697, -0.028305349871516228, -0.02762964926660061, -0.02695395052433014, -0.02627824991941452, -0.02560255117714405, -0.02492685057222843, -0.024251151829957962, -0.023575451225042343, -0.022899752482771873, -0.022224051877856255, -0.021548351272940636, -0.020872650668025017, -0.020196951925754547, -0.019521251320838928, -0.01884555257856846, -0.01816985197365284, -0.01749415323138237, -0.01681845262646675, -0.01614275388419628, -0.015467054210603237, -0.014791354537010193, -0.014115654863417149, -0.013439955189824104, -0.012764254584908485, -0.012088554911315441, -0.011412855237722397, -0.010737155564129353, -0.010061455890536308, -0.009385756216943264, -0.00871005654335022, -0.0080343559384346, -0.007358656730502844, -0.006682956591248512, -0.006007256917655468, -0.005331557244062424, -0.004655857570469379, -0.003980157896876335, -0.0033044577576220036, -0.0026287580840289593, -0.0019530582940205932, -0.001277358504012227, -0.000601658714003861, 7.404110510833561e-05]}, "gradients/model.2.conv.bias": {"_type": "histogram", "values": [1.0, 0.0, 0.0, 0.0, 0.0, 0.0, 0.0, 0.0, 0.0, 0.0, 0.0, 0.0, 0.0, 0.0, 0.0, 0.0, 0.0, 0.0, 0.0, 0.0, 0.0, 0.0, 0.0, 0.0, 0.0, 0.0, 0.0, 0.0, 0.0, 0.0, 0.0, 0.0, 0.0, 0.0, 0.0, 0.0, 0.0, 0.0, 0.0, 0.0, 0.0, 0.0, 0.0, 0.0, 0.0, 0.0, 0.0, 0.0, 0.0, 0.0, 0.0, 0.0, 0.0, 0.0, 0.0, 0.0, 0.0, 0.0, 0.0, 0.0, 0.0, 0.0, 0.0, 1.0], "bins": [-0.0640726238489151, -0.06307148933410645, -0.06207035481929779, -0.061069220304489136, -0.06006808578968048, -0.059066951274871826, -0.05806581676006317, -0.05706468224525452, -0.05606354773044586, -0.05506241321563721, -0.05406127870082855, -0.0530601441860199, -0.05205900967121124, -0.05105787515640259, -0.05005674064159393, -0.04905560612678528, -0.048054467886686325, -0.04705333337187767, -0.046052198857069016, -0.04505106434226036, -0.044049929827451706, -0.04304879531264305, -0.042047660797834396, -0.04104652628302574, -0.04004538804292679, -0.039044253528118134, -0.03804311901330948, -0.037041984498500824, -0.03604084998369217, -0.035039715468883514, -0.03403858095407486, -0.033037446439266205, -0.03203631192445755, -0.031035177409648895, -0.03003404289484024, -0.029032908380031586, -0.02803177386522293, -0.027030637487769127, -0.026029502972960472, -0.025028368458151817, -0.024027233943343163, -0.023026099428534508, -0.022024964913725853, -0.021023830398917198, -0.020022694021463394, -0.01902155950665474, -0.018020424991846085, -0.01701929047703743, -0.016018155962228775, -0.01501702144742012, -0.014015886932611465, -0.013014751486480236, -0.012013616971671581, -0.011012482456862926, -0.010011347010731697, -0.009010212495923042, -0.008009077981114388, -0.007007943466305733, -0.006006808485835791, -0.0050056735053658485, -0.004004538990557194, -0.0030034042429178953, -0.002002269495278597, -0.0010011347476392984, -1.0038079742424877e-11]}, "gradients/model.1.submodule.2.adn.A.weight": {"_type": "histogram", "values": [0.0, 0.0, 0.0, 0.0, 0.0, 0.0, 0.0, 0.0, 0.0, 0.0, 0.0, 0.0, 0.0, 0.0, 0.0, 0.0, 0.0, 0.0, 0.0, 0.0, 0.0, 0.0, 0.0, 0.0, 0.0, 0.0, 0.0, 0.0, 0.0, 0.0, 0.0, 0.0, 1.0, 0.0, 0.0, 0.0, 0.0, 0.0, 0.0, 0.0, 0.0, 0.0, 0.0, 0.0, 0.0, 0.0, 0.0, 0.0, 0.0, 0.0, 0.0, 0.0, 0.0, 0.0, 0.0, 0.0, 0.0, 0.0, 0.0, 0.0, 0.0, 0.0, 0.0, 0.0], "bins": [-0.09555532783269882, -0.09555532783269882, -0.09555532783269882, -0.09555532783269882, -0.09555532783269882, -0.09555532783269882, -0.09555532783269882, -0.09555532783269882, -0.09555532783269882, -0.09555532783269882, -0.09555532783269882, -0.09555532783269882, -0.09555532783269882, -0.09555532783269882, -0.09555532783269882, -0.09555532783269882, -0.09555532783269882, -0.09555532783269882, -0.09555532783269882, -0.09555532783269882, -0.09555532783269882, -0.09555532783269882, -0.09555532783269882, -0.09555532783269882, -0.09555532783269882, -0.09555532783269882, -0.09555532783269882, -0.09555532783269882, -0.09555532783269882, -0.09555532783269882, -0.09555532783269882, -0.09555532783269882, -0.09555532783269882, -0.09555532783269882, -0.09555532783269882, -0.09555532783269882, -0.09555532783269882, -0.09555532783269882, -0.09555532783269882, -0.09555532783269882, -0.09555532783269882, -0.09555532783269882, -0.09555532783269882, -0.09555532783269882, -0.09555532783269882, -0.09555532783269882, -0.09555532783269882, -0.09555532783269882, -0.09555532783269882, -0.09555532783269882, -0.09555532783269882, -0.09555532783269882, -0.09555532783269882, -0.09555532783269882, -0.09555532783269882, -0.09555532783269882, -0.09555532783269882, -0.09555532783269882, -0.09555532783269882, -0.09555532783269882, -0.09555532783269882, -0.09555532783269882, -0.09555532783269882, -0.09555532783269882, -0.09555532783269882]}, "gradients/model.1.submodule.2.conv.weight": {"_type": "histogram", "values": [2.0, 1.0, 2.0, 3.0, 4.0, 3.0, 5.0, 1.0, 6.0, 5.0, 10.0, 13.0, 6.0, 15.0, 11.0, 4.0, 10.0, 4.0, 7.0, 10.0, 10.0, 9.0, 5.0, 1.0, 5.0, 4.0, 1.0, 3.0, 1.0, 4.0, 4.0, 1.0, 1.0, 0.0, 1.0, 0.0, 1.0, 3.0, 1.0, 4.0, 6.0, 6.0, 8.0, 1.0, 3.0, 2.0, 1.0, 0.0, 1.0, 1.0, 0.0, 0.0, 0.0, 0.0, 1.0, 0.0, 1.0, 0.0, 1.0, 1.0, 1.0, 0.0, 0.0, 1.0], "bins": [-0.00039748926064930856, -0.0003812018840108067, -0.0003649145073723048, -0.0003486271307338029, -0.0003323397831991315, -0.0003160524065606296, -0.0002997650299221277, -0.00028347765328362584, -0.00026719027664512396, -0.0002509029000066221, -0.0002346155233681202, -0.00021832816128153354, -0.00020204078464303166, -0.00018575340800452977, -0.00016946604591794312, -0.00015317866927944124, -0.00013689129264093935, -0.00012060391600243747, -0.0001043165466398932, -8.802917727734894e-05, -7.174180063884705e-05, -5.545442763832398e-05, -3.91670546378009e-05, -2.2879681637277827e-05, -6.592308636754751e-06, 9.695064363768324e-06, 2.59824373642914e-05, 4.2269810364814475e-05, 5.855718336533755e-05, 7.484456000383943e-05, 9.11319293663837e-05, 0.00010741929872892797, 0.0001237067044712603, 0.0001399940811097622, 0.00015628145774826407, 0.00017256881983485073, 0.0001888561964733526, 0.0002051435731118545, 0.00022143093519844115, 0.00023771831183694303, 0.0002540056884754449, 0.0002702930651139468, 0.0002865804417524487, 0.00030286781839095056, 0.000319155165925622, 0.00033544254256412387, 0.00035172991920262575, 0.00036801729584112763, 0.0003843046724796295, 0.0004005920491181314, 0.0004168794257566333, 0.00043316680239513516, 0.00044945417903363705, 0.00046574152656830847, 0.00048202890320681036, 0.0004983163089491427, 0.0005146036855876446, 0.0005308910622261465, 0.0005471784388646483, 0.0005634658155031502, 0.0005797531921416521, 0.000596040568780154, 0.0006123279454186559, 0.0006286153220571578, 0.0006449026404879987]}, "gradients/model.1.submodule.2.conv.bias": {"_type": "histogram", "values": [1.0, 0.0, 0.0, 0.0, 0.0, 0.0, 0.0, 0.0, 0.0, 0.0, 0.0, 0.0, 0.0, 0.0, 0.0, 0.0, 0.0, 0.0, 0.0, 0.0, 0.0, 0.0, 0.0, 0.0, 0.0, 0.0, 0.0, 0.0, 0.0, 0.0, 0.0, 0.0, 0.0, 0.0, 0.0, 0.0, 0.0, 0.0, 0.0, 0.0, 0.0, 0.0, 0.0, 0.0, 0.0, 0.0, 0.0, 0.0, 0.0, 0.0, 0.0, 0.0, 0.0, 0.0, 0.0, 0.0, 0.0, 0.0, 0.0, 0.0, 0.0, 0.0, 0.0, 1.0], "bins": [3.673727988484643e-10, 4.1499537140055054e-10, 4.6261791619706116e-10, 5.102404609935718e-10, 5.57863033545658e-10, 6.054856060977443e-10, 6.531081231386793e-10, 7.007306956907655e-10, 7.483532682428518e-10, 7.95975840794938e-10, 8.435984133470242e-10, 8.912209303879592e-10, 9.388434474288943e-10, 9.864660199809805e-10, 1.0340885925330667e-09, 1.081711165085153e-09, 1.1293337376372392e-09, 1.1769563101893254e-09, 1.2245788827414117e-09, 1.272201455293498e-09, 1.3198240278455842e-09, 1.367446489375368e-09, 1.4150690619274542e-09, 1.4626916344795404e-09, 1.5103142070316267e-09, 1.557936779583713e-09, 1.6055593521357991e-09, 1.6531819246878854e-09, 1.7008043862176692e-09, 1.7484269587697554e-09, 1.7960495313218416e-09, 1.8436721038739279e-09, 1.891294676426014e-09, 1.9389172489781004e-09, 1.9865398215301866e-09, 2.034162394082273e-09, 2.081784966634359e-09, 2.1294075391864453e-09, 2.1770301117385316e-09, 2.224652684290618e-09, 2.272275256842704e-09, 2.3198978293947903e-09, 2.3675204019468765e-09, 2.4151429744989628e-09, 2.462765547051049e-09, 2.5103881196031352e-09, 2.5580106921552215e-09, 2.6056332647073077e-09, 2.653255615214789e-09, 2.7008781877668753e-09, 2.7485007603189615e-09, 2.7961233328710478e-09, 2.843745905423134e-09, 2.8913684779752202e-09, 2.9389910505273065e-09, 2.9866136230793927e-09, 3.034235973586874e-09, 3.0818585461389603e-09, 3.1294811186910465e-09, 3.1771036912431327e-09, 3.224726263795219e-09, 3.2723488363473052e-09, 3.3199714088993915e-09, 3.3675939814514777e-09, 3.415216554003564e-09]}, "gradients/model.1.submodule.1.submodule.2.adn.A.weight": {"_type": "histogram", "values": [0.0, 0.0, 0.0, 0.0, 0.0, 0.0, 0.0, 0.0, 0.0, 0.0, 0.0, 0.0, 0.0, 0.0, 0.0, 0.0, 0.0, 0.0, 0.0, 0.0, 0.0, 0.0, 0.0, 0.0, 0.0, 0.0, 0.0, 0.0, 0.0, 0.0, 0.0, 0.0, 1.0, 0.0, 0.0, 0.0, 0.0, 0.0, 0.0, 0.0, 0.0, 0.0, 0.0, 0.0, 0.0, 0.0, 0.0, 0.0, 0.0, 0.0, 0.0, 0.0, 0.0, 0.0, 0.0, 0.0, 0.0, 0.0, 0.0, 0.0, 0.0, 0.0, 0.0, 0.0], "bins": [-0.00185384473297745, -0.00185384473297745, -0.00185384473297745, -0.00185384473297745, -0.00185384473297745, -0.00185384473297745, -0.00185384473297745, -0.00185384473297745, -0.00185384473297745, -0.00185384473297745, -0.00185384473297745, -0.00185384473297745, -0.00185384473297745, -0.00185384473297745, -0.00185384473297745, -0.00185384473297745, -0.00185384473297745, -0.00185384473297745, -0.00185384473297745, -0.00185384473297745, -0.00185384473297745, -0.00185384473297745, -0.00185384473297745, -0.00185384473297745, -0.00185384473297745, -0.00185384473297745, -0.00185384473297745, -0.00185384473297745, -0.00185384473297745, -0.00185384473297745, -0.00185384473297745, -0.00185384473297745, -0.00185384473297745, -0.00185384473297745, -0.00185384473297745, -0.00185384473297745, -0.00185384473297745, -0.00185384473297745, -0.00185384473297745, -0.00185384473297745, -0.00185384473297745, -0.00185384473297745, -0.00185384473297745, -0.00185384473297745, -0.00185384473297745, -0.00185384473297745, -0.00185384473297745, -0.00185384473297745, -0.00185384473297745, -0.00185384473297745, -0.00185384473297745, -0.00185384473297745, -0.00185384473297745, -0.00185384473297745, -0.00185384473297745, -0.00185384473297745, -0.00185384473297745, -0.00185384473297745, -0.00185384473297745, -0.00185384473297745, -0.00185384473297745, -0.00185384473297745, -0.00185384473297745, -0.00185384473297745, -0.00185384473297745]}, "gradients/model.1.submodule.1.submodule.2.conv.weight": {"_type": "histogram", "values": [2.0, 3.0, 3.0, 2.0, 8.0, 4.0, 7.0, 6.0, 6.0, 7.0, 6.0, 9.0, 14.0, 4.0, 13.0, 10.0, 16.0, 9.0, 10.0, 7.0, 6.0, 3.0, 6.0, 4.0, 12.0, 13.0, 14.0, 12.0, 7.0, 8.0, 12.0, 17.0, 20.0, 18.0, 19.0, 17.0, 22.0, 19.0, 19.0, 6.0, 2.0, 4.0, 5.0, 1.0, 2.0, 3.0, 3.0, 3.0, 0.0, 0.0, 1.0, 1.0, 0.0, 1.0, 3.0, 0.0, 0.0, 0.0, 1.0, 0.0, 1.0, 0.0, 0.0, 1.0], "bins": [-8.209593215724453e-05, -7.914871821412817e-05, -7.620149699505419e-05, -7.325428305193782e-05, -7.030706183286384e-05, -6.735984788974747e-05, -6.441262667067349e-05, -6.146541272755712e-05, -5.851819514646195e-05, -5.5570977565366775e-05, -5.26237599842716e-05, -4.967654240317643e-05, -4.672932846006006e-05, -4.3782110878964886e-05, -4.083489329786971e-05, -3.788767571677454e-05, -3.4940458135679364e-05, -3.199324055458419e-05, -2.9046022973489016e-05, -2.6098807211383246e-05, -2.3151589630288072e-05, -2.0204372049192898e-05, -1.7257156287087128e-05, -1.4309938705991954e-05, -1.1362724762875587e-05, -8.415507181780413e-06, -5.468290510179941e-06, -2.5210733838321175e-06, 4.261437425157055e-07, 3.3733608688635286e-06, 6.320577995211352e-06, 9.267794666811824e-06, 1.2215023161843419e-05, 1.5162240742938593e-05, 1.8109458324033767e-05, 2.1056674086139537e-05, 2.400389166723471e-05, 2.6951109248329885e-05, 2.9898325010435656e-05, 3.284554259153083e-05, 3.579276381060481e-05, 3.8739981391699985e-05, 4.168719897279516e-05, 4.463441655389033e-05, 4.7581634134985507e-05, 5.0528848078101873e-05, 5.347606565919705e-05, 5.642328324029222e-05, 5.937049718340859e-05, 6.231771112652496e-05, 6.526493234559894e-05, 6.82121462887153e-05, 7.115936750778928e-05, 7.410658145090565e-05, 7.705380266997963e-05, 8.0001016613096e-05, 8.294823055621237e-05, 8.589544449932873e-05, 8.884266571840271e-05, 9.178987966151908e-05, 9.473710088059306e-05, 9.768431482370943e-05, 0.00010063153604278341, 0.00010357874998589978, 0.00010652597120497376]}, "gradients/model.1.submodule.1.submodule.2.conv.bias": {"_type": "histogram", "values": [1.0, 0.0, 0.0, 0.0, 0.0, 0.0, 0.0, 0.0, 0.0, 0.0, 0.0, 0.0, 0.0, 0.0, 0.0, 0.0, 0.0, 0.0, 0.0, 0.0, 0.0, 0.0, 0.0, 0.0, 0.0, 0.0, 0.0, 0.0, 0.0, 0.0, 0.0, 0.0, 0.0, 0.0, 0.0, 0.0, 0.0, 0.0, 0.0, 0.0, 0.0, 0.0, 0.0, 0.0, 0.0, 0.0, 0.0, 0.0, 0.0, 0.0, 0.0, 0.0, 0.0, 0.0, 0.0, 0.0, 0.0, 0.0, 0.0, 0.0, 0.0, 0.0, 0.0, 1.0], "bins": [8.981104748784219e-11, 1.1171708003132608e-10, 1.3362311257480997e-10, 1.5552913124050605e-10, 1.7743516378398994e-10, 1.9934119632747382e-10, 2.212472149931699e-10, 2.431532475366538e-10, 2.650592800801377e-10, 2.8696531262362157e-10, 3.0887134516710546e-10, 3.3077737771058935e-10, 3.526833824984976e-10, 3.745894150419815e-10, 3.964954475854654e-10, 4.184014801289493e-10, 4.403075126724332e-10, 4.6221354521591707e-10, 4.84119577759401e-10, 5.060256103028848e-10, 5.279316428463687e-10, 5.498376753898526e-10, 5.717437079333365e-10, 5.936497404768204e-10, 6.155557175091531e-10, 6.374617500526369e-10, 6.593677825961208e-10, 6.812738151396047e-10, 7.031798476830886e-10, 7.250858802265725e-10, 7.469919127700564e-10, 7.688979453135403e-10, 7.908039778570242e-10, 8.127100104005081e-10, 8.346160429439919e-10, 8.565220754874758e-10, 8.784281080309597e-10, 9.003341405744436e-10, 9.222401731179275e-10, 9.441462056614114e-10, 9.660522382048953e-10, 9.879582707483792e-10, 1.009864303291863e-09, 1.031770335835347e-09, 1.0536763683788308e-09, 1.0755824009223147e-09, 1.0974884334657986e-09, 1.1193944660092825e-09, 1.141300387530464e-09, 1.1632064200739478e-09, 1.1851124526174317e-09, 1.2070184851609156e-09, 1.2289245177043995e-09, 1.2508305502478834e-09, 1.2727365827913673e-09, 1.2946426153348511e-09, 1.316548647878335e-09, 1.338454680421819e-09, 1.3603607129653028e-09, 1.3822667455087867e-09, 1.4041727780522706e-09, 1.4260788105957545e-09, 1.4479848431392384e-09, 1.4698908756827223e-09, 1.4917969082262061e-09]}, "gradients/model.1.submodule.1.submodule.1.submodule.2.adn.A.weight": {"_type": "histogram", "values": [0.0, 0.0, 0.0, 0.0, 0.0, 0.0, 0.0, 0.0, 0.0, 0.0, 0.0, 0.0, 0.0, 0.0, 0.0, 0.0, 0.0, 0.0, 0.0, 0.0, 0.0, 0.0, 0.0, 0.0, 0.0, 0.0, 0.0, 0.0, 0.0, 0.0, 0.0, 0.0, 1.0, 0.0, 0.0, 0.0, 0.0, 0.0, 0.0, 0.0, 0.0, 0.0, 0.0, 0.0, 0.0, 0.0, 0.0, 0.0, 0.0, 0.0, 0.0, 0.0, 0.0, 0.0, 0.0, 0.0, 0.0, 0.0, 0.0, 0.0, 0.0, 0.0, 0.0, 0.0], "bins": [0.0005368529236875474, 0.0005368529236875474, 0.0005368529236875474, 0.0005368529236875474, 0.0005368529236875474, 0.0005368529236875474, 0.0005368529236875474, 0.0005368529236875474, 0.0005368529236875474, 0.0005368529236875474, 0.0005368529236875474, 0.0005368529236875474, 0.0005368529236875474, 0.0005368529236875474, 0.0005368529236875474, 0.0005368529236875474, 0.0005368529236875474, 0.0005368529236875474, 0.0005368529236875474, 0.0005368529236875474, 0.0005368529236875474, 0.0005368529236875474, 0.0005368529236875474, 0.0005368529236875474, 0.0005368529236875474, 0.0005368529236875474, 0.0005368529236875474, 0.0005368529236875474, 0.0005368529236875474, 0.0005368529236875474, 0.0005368529236875474, 0.0005368529236875474, 0.0005368529236875474, 0.0005368529236875474, 0.0005368529236875474, 0.0005368529236875474, 0.0005368529236875474, 0.0005368529236875474, 0.0005368529236875474, 0.0005368529236875474, 0.0005368529236875474, 0.0005368529236875474, 0.0005368529236875474, 0.0005368529236875474, 0.0005368529236875474, 0.0005368529236875474, 0.0005368529236875474, 0.0005368529236875474, 0.0005368529236875474, 0.0005368529236875474, 0.0005368529236875474, 0.0005368529236875474, 0.0005368529236875474, 0.0005368529236875474, 0.0005368529236875474, 0.0005368529236875474, 0.0005368529236875474, 0.0005368529236875474, 0.0005368529236875474, 0.0005368529236875474, 0.0005368529236875474, 0.0005368529236875474, 0.0005368529236875474, 0.0005368529236875474, 0.0005368529236875474]}, "gradients/model.1.submodule.1.submodule.1.submodule.2.conv.weight": {"_type": "histogram", "values": [1.0, 2.0, 3.0, 2.0, 8.0, 5.0, 8.0, 9.0, 5.0, 7.0, 9.0, 9.0, 13.0, 12.0, 4.0, 12.0, 11.0, 8.0, 7.0, 7.0, 5.0, 7.0, 6.0, 7.0, 12.0, 12.0, 9.0, 8.0, 8.0, 27.0, 69.0, 98.0, 167.0, 230.0, 332.0, 348.0, 300.0, 308.0, 130.0, 63.0, 24.0, 20.0, 23.0, 30.0, 23.0, 22.0, 21.0, 20.0, 17.0, 19.0, 15.0, 12.0, 10.0, 5.0, 3.0, 7.0, 9.0, 6.0, 2.0, 7.0, 4.0, 2.0, 0.0, 3.0], "bins": [-6.622306682402268e-05, -6.436381227103993e-05, -6.250455044209957e-05, -6.0645295889116824e-05, -5.8786041336134076e-05, -5.692678678315133e-05, -5.5067528592189774e-05, -5.320827040122822e-05, -5.134901584824547e-05, -4.9489761295262724e-05, -4.763050310430117e-05, -4.5771244913339615e-05, -4.391199036035687e-05, -4.205273580737412e-05, -4.0193477616412565e-05, -3.833421942545101e-05, -3.647496487246826e-05, -3.4615710319485515e-05, -3.275645212852396e-05, -3.0897193937562406e-05, -2.903793938457966e-05, -2.7178683012607507e-05, -2.5319426640635356e-05, -2.3460170268663205e-05, -2.1600913896691054e-05, -1.9741657524718903e-05, -1.7882401152746752e-05, -1.60231447807746e-05, -1.416388840880245e-05, -1.2304632036830299e-05, -1.0445375664858148e-05, -8.586119292885996e-06, -6.726859282935038e-06, -4.867602910962887e-06, -3.008346538990736e-06, -1.149090167018585e-06, 7.101662049535662e-07, 2.5694225769257173e-06, 4.428678948897868e-06, 6.2879353208700195e-06, 8.14719169284217e-06, 1.0006448064814322e-05, 1.1865704436786473e-05, 1.3724960808758624e-05, 1.5584217180730775e-05, 1.7443473552702926e-05, 1.9302729924675077e-05, 2.1161986296647228e-05, 2.302124266861938e-05, 2.488049904059153e-05, 2.673975541256368e-05, 2.8599011784535833e-05, 3.0458268156507984e-05, 3.231752634746954e-05, 3.4176780900452286e-05, 3.6036035453435034e-05, 3.789529364439659e-05, 3.975455183535814e-05, 4.161380638834089e-05, 4.347306094132364e-05, 4.533231913228519e-05, 4.719157732324675e-05, 4.9050831876229495e-05, 5.091008642921224e-05, 5.27693446201738e-05]}, "gradients/model.1.submodule.1.submodule.1.submodule.2.conv.bias": {"_type": "histogram", "values": [1.0, 0.0, 1.0, 0.0, 0.0, 0.0, 0.0, 1.0, 0.0, 0.0, 0.0, 0.0, 0.0, 0.0, 0.0, 0.0, 0.0, 0.0, 0.0, 0.0, 0.0, 0.0, 0.0, 0.0, 0.0, 0.0, 0.0, 0.0, 0.0, 0.0, 0.0, 0.0, 0.0, 0.0, 0.0, 0.0, 0.0, 0.0, 0.0, 0.0, 0.0, 0.0, 0.0, 0.0, 0.0, 0.0, 0.0, 0.0, 0.0, 0.0, 0.0, 0.0, 0.0, 0.0, 0.0, 0.0, 0.0, 0.0, 0.0, 0.0, 0.0, 0.0, 0.0, 1.0], "bins": [-1.7677681540817503e-10, -1.4924828040108196e-10, -1.217197453939889e-10, -9.419121038689582e-11, -6.666267537980275e-11, -3.913414037270968e-11, -1.1605605365616611e-11, 1.5922929641476458e-11, 4.3451464648569527e-11, 7.09799996556626e-11, 9.850853466275566e-11, 1.2603706966984873e-10, 1.535656046769418e-10, 1.8109413968403487e-10, 2.0862267469112794e-10, 2.36151209698221e-10, 2.636797447053141e-10, 2.9120827971240715e-10, 3.187368147195002e-10, 3.462653497265933e-10, 3.7379388473368635e-10, 4.013224197407794e-10, 4.288509547478725e-10, 4.5637948975496556e-10, 4.839080247620586e-10, 5.114365597691517e-10, 5.389650947762448e-10, 5.664936297833378e-10, 5.940221647904309e-10, 6.21550699797524e-10, 6.49079234804617e-10, 6.766077698117101e-10, 7.041363048188032e-10, 7.316648398258963e-10, 7.591933748329893e-10, 7.867219098400824e-10, 8.142504448471755e-10, 8.417789798542685e-10, 8.693075148613616e-10, 8.968360498684547e-10, 9.243645848755477e-10, 9.518931198826408e-10, 9.794216548897339e-10, 1.006950189896827e-09, 1.03447872490392e-09, 1.062007259911013e-09, 1.0895357949181061e-09, 1.1170643299251992e-09, 1.1445928649322923e-09, 1.1721213999393854e-09, 1.1996499349464784e-09, 1.2271784699535715e-09, 1.2547070049606646e-09, 1.2822355399677576e-09, 1.3097640749748507e-09, 1.3372926099819438e-09, 1.3648211449890368e-09, 1.39234967999613e-09, 1.419878215003223e-09, 1.447406750010316e-09, 1.4749352850174091e-09, 1.5024638200245022e-09, 1.5299923550315953e-09, 1.5575208900386883e-09, 1.5850494250457814e-09]}, "gradients/model.1.submodule.1.submodule.1.submodule.1.submodule.adn.A.weight": {"_type": "histogram", "values": [0.0, 0.0, 0.0, 0.0, 0.0, 0.0, 0.0, 0.0, 0.0, 0.0, 0.0, 0.0, 0.0, 0.0, 0.0, 0.0, 0.0, 0.0, 0.0, 0.0, 0.0, 0.0, 0.0, 0.0, 0.0, 0.0, 0.0, 0.0, 0.0, 0.0, 0.0, 0.0, 1.0, 0.0, 0.0, 0.0, 0.0, 0.0, 0.0, 0.0, 0.0, 0.0, 0.0, 0.0, 0.0, 0.0, 0.0, 0.0, 0.0, 0.0, 0.0, 0.0, 0.0, 0.0, 0.0, 0.0, 0.0, 0.0, 0.0, 0.0, 0.0, 0.0, 0.0, 0.0], "bins": [-0.0002442625118419528, -0.0002442625118419528, -0.0002442625118419528, -0.0002442625118419528, -0.0002442625118419528, -0.0002442625118419528, -0.0002442625118419528, -0.0002442625118419528, -0.0002442625118419528, -0.0002442625118419528, -0.0002442625118419528, -0.0002442625118419528, -0.0002442625118419528, -0.0002442625118419528, -0.0002442625118419528, -0.0002442625118419528, -0.0002442625118419528, -0.0002442625118419528, -0.0002442625118419528, -0.0002442625118419528, -0.0002442625118419528, -0.0002442625118419528, -0.0002442625118419528, -0.0002442625118419528, -0.0002442625118419528, -0.0002442625118419528, -0.0002442625118419528, -0.0002442625118419528, -0.0002442625118419528, -0.0002442625118419528, -0.0002442625118419528, -0.0002442625118419528, -0.0002442625118419528, -0.0002442625118419528, -0.0002442625118419528, -0.0002442625118419528, -0.0002442625118419528, -0.0002442625118419528, -0.0002442625118419528, -0.0002442625118419528, -0.0002442625118419528, -0.0002442625118419528, -0.0002442625118419528, -0.0002442625118419528, -0.0002442625118419528, -0.0002442625118419528, -0.0002442625118419528, -0.0002442625118419528, -0.0002442625118419528, -0.0002442625118419528, -0.0002442625118419528, -0.0002442625118419528, -0.0002442625118419528, -0.0002442625118419528, -0.0002442625118419528, -0.0002442625118419528, -0.0002442625118419528, -0.0002442625118419528, -0.0002442625118419528, -0.0002442625118419528, -0.0002442625118419528, -0.0002442625118419528, -0.0002442625118419528, -0.0002442625118419528, -0.0002442625118419528]}, "gradients/model.1.submodule.1.submodule.1.submodule.1.submodule.conv.weight": {"_type": "histogram", "values": [1.0, 1.0, 0.0, 1.0, 2.0, 2.0, 5.0, 1.0, 5.0, 5.0, 8.0, 9.0, 12.0, 6.0, 11.0, 9.0, 15.0, 13.0, 13.0, 8.0, 11.0, 14.0, 13.0, 11.0, 9.0, 18.0, 14.0, 17.0, 23.0, 26.0, 38.0, 38.0, 33.0, 45.0, 39.0, 62.0, 95.0, 96.0, 123.0, 214.0, 307.0, 363.0, 346.0, 319.0, 263.0, 185.0, 168.0, 119.0, 89.0, 41.0, 47.0, 29.0, 19.0, 17.0, 14.0, 16.0, 15.0, 6.0, 3.0, 5.0, 6.0, 4.0, 5.0, 4.0], "bins": [-3.675279003800824e-05, -3.589404150261544e-05, -3.5035289329243824e-05, -3.417654079385102e-05, -3.3317788620479405e-05, -3.24590400850866e-05, -3.1600287911714986e-05, -3.074153937632218e-05, -2.988278902193997e-05, -2.902403866755776e-05, -2.816528831317555e-05, -2.7306537958793342e-05, -2.6447789423400536e-05, -2.5589039069018327e-05, -2.4730288714636117e-05, -2.3871538360253908e-05, -2.3012788005871698e-05, -2.215403765148949e-05, -2.129528729710728e-05, -2.043653694272507e-05, -1.957778658834286e-05, -1.8719038052950054e-05, -1.7860287698567845e-05, -1.7001537344185635e-05, -1.6142786989803426e-05, -1.5284036635421216e-05, -1.4425286281039007e-05, -1.35665368361515e-05, -1.270778648176929e-05, -1.184903612738708e-05, -1.0990286682499573e-05, -1.0131536328117363e-05, -9.272787792724557e-06, -8.414037438342348e-06, -7.555287538707489e-06, -6.6965376390726306e-06, -5.837787284690421e-06, -4.979036930308212e-06, -4.120287030673353e-06, -3.261536903664819e-06, -2.402786776656285e-06, -1.5440366496477509e-06, -6.852865226392169e-07, 1.7346360436931718e-07, 1.0322137313778512e-06, 1.8909638583863853e-06, 2.7497139853949193e-06, 3.6084641124034533e-06, 4.467214239411987e-06, 5.325964593794197e-06, 6.1847144934290554e-06, 7.043464393063914e-06, 7.902214747446124e-06, 8.760965101828333e-06, 9.61971454671584e-06, 1.047846490109805e-05, 1.133721525548026e-05, 1.2195965609862469e-05, 1.3054715964244679e-05, 1.3913465409132186e-05, 1.4772215763514396e-05, 1.5630965208401904e-05, 1.6489715562784113e-05, 1.7348465917166322e-05, 1.8207216271548532e-05]}, "gradients/model.1.submodule.1.submodule.1.submodule.1.submodule.conv.bias": {"_type": "histogram", "values": [1.0, 0.0, 0.0, 0.0, 0.0, 0.0, 0.0, 0.0, 0.0, 2.0, 0.0, 2.0, 3.0, 2.0, 3.0, 0.0, 0.0, 0.0, 0.0, 0.0, 0.0, 0.0, 0.0, 1.0, 0.0, 0.0, 0.0, 0.0, 0.0, 0.0, 0.0, 0.0, 0.0, 0.0, 0.0, 0.0, 0.0, 0.0, 0.0, 0.0, 0.0, 0.0, 0.0, 0.0, 0.0, 0.0, 0.0, 0.0, 0.0, 1.0, 0.0, 0.0, 0.0, 0.0, 0.0, 0.0, 0.0, 0.0, 0.0, 0.0, 0.0, 0.0, 0.0, 1.0], "bins": [-1.938260663081337e-09, -1.7817154418509062e-09, -1.6251702206204754e-09, -1.4686248883677422e-09, -1.3120796671373114e-09, -1.1555344459068806e-09, -9.989891136541473e-10, -8.424438924237165e-10, -6.858986711932857e-10, -5.293534499628549e-10, -3.728081732212729e-10, -2.162629242352665e-10, -5.971767524926008e-11, 9.682757373674633e-11, 2.5337282272275274e-10, 4.0991807170875916e-10, 5.664633206947656e-10, 7.230085419251964e-10, 8.795538186667784e-10, 1.0360990954083604e-09, 1.1926443166387912e-09, 1.349189537869222e-09, 1.5057348701219553e-09, 1.662280091352386e-09, 1.8188255346274218e-09, 1.9753707558578526e-09, 2.1319159770882834e-09, 2.288461198318714e-09, 2.445006419549145e-09, 2.6015518628241807e-09, 2.7580970840546115e-09, 2.9146423052850423e-09, 3.0711868603816583e-09, 3.227732081612089e-09, 3.38427730284252e-09, 3.5408225240729507e-09, 3.6973677453033815e-09, 3.853913188578417e-09, 4.010458187764243e-09, 4.167003631039279e-09, 4.323548630225105e-09, 4.4800940735001404e-09, 4.636639072685966e-09, 4.793184515961002e-09, 4.949729515146828e-09, 5.106274958421864e-09, 5.2628199576076895e-09, 5.419365400882725e-09, 5.575910844157761e-09, 5.732456287432797e-09, 5.8890012866186225e-09, 6.045546729893658e-09, 6.202091729079484e-09, 6.35863717235452e-09, 6.515182171540346e-09, 6.6717276148153815e-09, 6.828273058090417e-09, 6.984818501365453e-09, 7.141363500551279e-09, 7.2979089438263145e-09, 7.45445394301214e-09, 7.610998942197966e-09, 7.767544829562212e-09, 7.924089828748038e-09, 8.080634827933864e-09]}, "gradients/model.1.submodule.1.submodule.1.submodule.0.adn.A.weight": {"_type": "histogram", "values": [0.0, 0.0, 0.0, 0.0, 0.0, 0.0, 0.0, 0.0, 0.0, 0.0, 0.0, 0.0, 0.0, 0.0, 0.0, 0.0, 0.0, 0.0, 0.0, 0.0, 0.0, 0.0, 0.0, 0.0, 0.0, 0.0, 0.0, 0.0, 0.0, 0.0, 0.0, 0.0, 1.0, 0.0, 0.0, 0.0, 0.0, 0.0, 0.0, 0.0, 0.0, 0.0, 0.0, 0.0, 0.0, 0.0, 0.0, 0.0, 0.0, 0.0, 0.0, 0.0, 0.0, 0.0, 0.0, 0.0, 0.0, 0.0, 0.0, 0.0, 0.0, 0.0, 0.0, 0.0], "bins": [0.0027151787653565407, 0.0027151787653565407, 0.0027151787653565407, 0.0027151787653565407, 0.0027151787653565407, 0.0027151787653565407, 0.0027151787653565407, 0.0027151787653565407, 0.0027151787653565407, 0.0027151787653565407, 0.0027151787653565407, 0.0027151787653565407, 0.0027151787653565407, 0.0027151787653565407, 0.0027151787653565407, 0.0027151787653565407, 0.0027151787653565407, 0.0027151787653565407, 0.0027151787653565407, 0.0027151787653565407, 0.0027151787653565407, 0.0027151787653565407, 0.0027151787653565407, 0.0027151787653565407, 0.0027151787653565407, 0.0027151787653565407, 0.0027151787653565407, 0.0027151787653565407, 0.0027151787653565407, 0.0027151787653565407, 0.0027151787653565407, 0.0027151787653565407, 0.0027151787653565407, 0.0027151787653565407, 0.0027151787653565407, 0.0027151787653565407, 0.0027151787653565407, 0.0027151787653565407, 0.0027151787653565407, 0.0027151787653565407, 0.0027151787653565407, 0.0027151787653565407, 0.0027151787653565407, 0.0027151787653565407, 0.0027151787653565407, 0.0027151787653565407, 0.0027151787653565407, 0.0027151787653565407, 0.0027151787653565407, 0.0027151787653565407, 0.0027151787653565407, 0.0027151787653565407, 0.0027151787653565407, 0.0027151787653565407, 0.0027151787653565407, 0.0027151787653565407, 0.0027151787653565407, 0.0027151787653565407, 0.0027151787653565407, 0.0027151787653565407, 0.0027151787653565407, 0.0027151787653565407, 0.0027151787653565407, 0.0027151787653565407, 0.0027151787653565407]}, "gradients/model.1.submodule.1.submodule.1.submodule.0.conv.weight": {"_type": "histogram", "values": [1.0, 0.0, 1.0, 3.0, 1.0, 0.0, 3.0, 7.0, 11.0, 14.0, 23.0, 19.0, 26.0, 29.0, 39.0, 44.0, 36.0, 46.0, 34.0, 34.0, 36.0, 34.0, 44.0, 50.0, 47.0, 43.0, 37.0, 32.0, 37.0, 19.0, 9.0, 10.0, 12.0, 8.0, 14.0, 9.0, 4.0, 6.0, 4.0, 0.0, 5.0, 2.0, 2.0, 2.0, 2.0, 1.0, 0.0, 1.0, 5.0, 3.0, 0.0, 1.0, 1.0, 1.0, 3.0, 3.0, 0.0, 2.0, 1.0, 2.0, 0.0, 0.0, 0.0, 1.0], "bins": [-5.1836886996170506e-05, -4.905825699097477e-05, -4.627962698577903e-05, -4.3500996980583295e-05, -4.072236333740875e-05, -3.7943733332213014e-05, -3.516510332701728e-05, -3.238647332182154e-05, -2.9607843316625804e-05, -2.6829213311430067e-05, -2.405058330623433e-05, -2.127195148204919e-05, -1.8493321476853453e-05, -1.5714691471657716e-05, -1.2936060556967277e-05, -1.0157429642276838e-05, -7.3787996370811015e-06, -4.600169177138014e-06, -1.821538717194926e-06, 9.570917427481618e-07, 3.7357222026912495e-06, 6.514352662634337e-06, 9.292983122577425e-06, 1.2071614037267864e-05, 1.4850247680442408e-05, 1.7628877685638145e-05, 2.040750769083388e-05, 2.3186139515019022e-05, 2.596476952021476e-05, 2.8743399525410496e-05, 3.1522031349595636e-05, 3.430066135479137e-05, 3.7079284084029496e-05, 3.985791408922523e-05, 4.263654409442097e-05, 4.5415174099616706e-05, 4.819380410481244e-05, 5.097243774798699e-05, 5.3751067753182724e-05, 5.652969775837846e-05, 5.930832412559539e-05, 6.208695413079113e-05, 6.486558413598686e-05, 6.76442141411826e-05, 7.042284414637834e-05, 7.320147415157408e-05, 7.598010415676981e-05, 7.875873416196555e-05, 8.15373714431189e-05, 8.431600144831464e-05, 8.709463145351037e-05, 8.987326145870611e-05, 9.265189146390185e-05, 9.543052146909758e-05, 9.820915147429332e-05, 0.00010098778147948906, 0.00010376641876064241, 0.00010654504876583815, 0.00010932367877103388, 0.00011210230877622962, 0.00011488093878142536, 0.0001176595687866211, 0.00012043819879181683, 0.00012321682879701257, 0.0001259954588022083]}, "gradients/model.1.submodule.1.submodule.1.submodule.0.conv.bias": {"_type": "histogram", "values": [1.0, 0.0, 0.0, 0.0, 0.0, 0.0, 0.0, 0.0, 1.0, 0.0, 1.0, 0.0, 0.0, 0.0, 0.0, 0.0, 2.0, 0.0, 0.0, 0.0, 0.0, 0.0, 0.0, 1.0, 0.0, 0.0, 1.0, 0.0, 0.0, 0.0, 0.0, 0.0, 0.0, 0.0, 0.0, 0.0, 0.0, 0.0, 0.0, 0.0, 0.0, 0.0, 0.0, 0.0, 0.0, 0.0, 0.0, 0.0, 0.0, 0.0, 0.0, 0.0, 0.0, 0.0, 0.0, 0.0, 0.0, 0.0, 0.0, 0.0, 0.0, 0.0, 0.0, 1.0], "bins": [-7.768946375108499e-09, -7.0385204331557816e-09, -6.3080944912030645e-09, -5.5776685492503475e-09, -4.8472426072976305e-09, -4.1168166653449134e-09, -3.3863907233921964e-09, -2.6559647814394793e-09, -1.9255388394867623e-09, -1.1951128975340453e-09, -4.646869555813282e-10, 2.657389863713888e-10, 9.961649283241059e-10, 1.726590870276823e-09, 2.45701681222954e-09, 3.187442754182257e-09, 3.917868696134974e-09, 4.648294638087691e-09, 5.378720580040408e-09, 6.109146521993125e-09, 6.839572463945842e-09, 7.56999796180935e-09, 8.300424347851276e-09, 9.030850733893203e-09, 9.76127623175671e-09, 1.0491701729620218e-08, 1.1222128115662144e-08, 1.1952554501704071e-08, 1.2682979999567578e-08, 1.3413405497431086e-08, 1.4143831883473013e-08, 1.487425826951494e-08, 1.5604683767378447e-08, 1.6335109265241954e-08, 1.706553476310546e-08, 1.7795962037325808e-08, 1.8526387535189315e-08, 1.9256813033052822e-08, 1.998724030727317e-08, 2.0717665805136676e-08, 2.1448091303000183e-08, 2.217851680086369e-08, 2.2908942298727197e-08, 2.3639369572947544e-08, 2.436979507081105e-08, 2.5100220568674558e-08, 2.5830647842894905e-08, 2.6561073340758412e-08, 2.729149883862192e-08, 2.8021924336485426e-08, 2.8752349834348934e-08, 2.948277710856928e-08, 3.021320083007595e-08, 3.0943628104296295e-08, 3.167405537851664e-08, 3.240447910002331e-08, 3.3134906374243656e-08, 3.3865333648464e-08, 3.459575736997067e-08, 3.5326184644191017e-08, 3.605661191841136e-08, 3.678703563991803e-08, 3.751746291413838e-08, 3.8247886635645045e-08, 3.897831390986539e-08]}, "gradients/model.1.submodule.1.submodule.0.adn.A.weight": {"_type": "histogram", "values": [0.0, 0.0, 0.0, 0.0, 0.0, 0.0, 0.0, 0.0, 0.0, 0.0, 0.0, 0.0, 0.0, 0.0, 0.0, 0.0, 0.0, 0.0, 0.0, 0.0, 0.0, 0.0, 0.0, 0.0, 0.0, 0.0, 0.0, 0.0, 0.0, 0.0, 0.0, 0.0, 1.0, 0.0, 0.0, 0.0, 0.0, 0.0, 0.0, 0.0, 0.0, 0.0, 0.0, 0.0, 0.0, 0.0, 0.0, 0.0, 0.0, 0.0, 0.0, 0.0, 0.0, 0.0, 0.0, 0.0, 0.0, 0.0, 0.0, 0.0, 0.0, 0.0, 0.0, 0.0], "bins": [0.0015863357111811638, 0.0015863357111811638, 0.0015863357111811638, 0.0015863357111811638, 0.0015863357111811638, 0.0015863357111811638, 0.0015863357111811638, 0.0015863357111811638, 0.0015863357111811638, 0.0015863357111811638, 0.0015863357111811638, 0.0015863357111811638, 0.0015863357111811638, 0.0015863357111811638, 0.0015863357111811638, 0.0015863357111811638, 0.0015863357111811638, 0.0015863357111811638, 0.0015863357111811638, 0.0015863357111811638, 0.0015863357111811638, 0.0015863357111811638, 0.0015863357111811638, 0.0015863357111811638, 0.0015863357111811638, 0.0015863357111811638, 0.0015863357111811638, 0.0015863357111811638, 0.0015863357111811638, 0.0015863357111811638, 0.0015863357111811638, 0.0015863357111811638, 0.0015863357111811638, 0.0015863357111811638, 0.0015863357111811638, 0.0015863357111811638, 0.0015863357111811638, 0.0015863357111811638, 0.0015863357111811638, 0.0015863357111811638, 0.0015863357111811638, 0.0015863357111811638, 0.0015863357111811638, 0.0015863357111811638, 0.0015863357111811638, 0.0015863357111811638, 0.0015863357111811638, 0.0015863357111811638, 0.0015863357111811638, 0.0015863357111811638, 0.0015863357111811638, 0.0015863357111811638, 0.0015863357111811638, 0.0015863357111811638, 0.0015863357111811638, 0.0015863357111811638, 0.0015863357111811638, 0.0015863357111811638, 0.0015863357111811638, 0.0015863357111811638, 0.0015863357111811638, 0.0015863357111811638, 0.0015863357111811638, 0.0015863357111811638, 0.0015863357111811638]}, "gradients/model.1.submodule.1.submodule.0.conv.weight": {"_type": "histogram", "values": [1.0, 0.0, 0.0, 3.0, 2.0, 2.0, 1.0, 4.0, 1.0, 4.0, 2.0, 4.0, 4.0, 1.0, 7.0, 7.0, 10.0, 12.0, 15.0, 17.0, 11.0, 9.0, 7.0, 9.0, 3.0, 4.0, 8.0, 3.0, 2.0, 2.0, 6.0, 3.0, 2.0, 2.0, 3.0, 0.0, 5.0, 3.0, 4.0, 3.0, 1.0, 1.0, 2.0, 4.0, 1.0, 2.0, 1.0, 0.0, 1.0, 1.0, 0.0, 1.0, 0.0, 0.0, 3.0, 2.0, 0.0, 3.0, 0.0, 2.0, 2.0, 0.0, 1.0, 2.0], "bins": [-0.0003708160074893385, -0.00035089158336631954, -0.000330967188347131, -0.00031104276422411203, -0.00029111834010109305, -0.00027119394508190453, -0.00025126952095888555, -0.00023134509683586657, -0.00021142068726476282, -0.00019149627769365907, -0.0001715718535706401, -0.00015164744399953634, -0.00013172303442843258, -0.0001117986103054136, -9.187420073430985e-05, -7.194978388724849e-05, -5.202536704018712e-05, -3.2100950193125755e-05, -1.2176536984043196e-05, 7.747878044028766e-06, 2.767229307210073e-05, 4.7596709919162095e-05, 6.752111949026585e-05, 8.744553633732721e-05, 0.00010736993863247335, 0.0001272943482035771, 0.00014721877232659608, 0.00016714318189769983, 0.0001870676060207188, 0.00020699201559182256, 0.00022691642516292632, 0.0002468408492859453, 0.0002667652443051338, 0.0002866896684281528, 0.0003066140634473413, 0.0003265384875703603, 0.0003464629116933793, 0.0003663873067125678, 0.0003863117308355868, 0.00040623615495860577, 0.00042616057908162475, 0.0004460850032046437, 0.00046600939822383225, 0.00048593382234685123, 0.0005058582173660398, 0.0005257826414890587, 0.0005457070656120777, 0.0005656314897350967, 0.0005855559138581157, 0.0006054803379811347, 0.0006254047621041536, 0.0006453291862271726, 0.0006652535521425307, 0.0006851779762655497, 0.0007051024003885686, 0.0007250268245115876, 0.0007449511904269457, 0.0007648756145499647, 0.0007848000386729836, 0.0008047244627960026, 0.0008246488287113607, 0.0008445732528343797, 0.0008644976769573987, 0.0008844221010804176, 0.0009043465252034366]}, "gradients/model.1.submodule.1.submodule.0.conv.bias": {"_type": "histogram", "values": [2.0, 0.0, 0.0, 0.0, 0.0, 0.0, 0.0, 0.0, 0.0, 0.0, 0.0, 0.0, 0.0, 0.0, 0.0, 0.0, 0.0, 0.0, 0.0, 0.0, 0.0, 0.0, 0.0, 0.0, 0.0, 0.0, 0.0, 0.0, 0.0, 0.0, 0.0, 0.0, 0.0, 0.0, 0.0, 0.0, 0.0, 0.0, 0.0, 0.0, 0.0, 0.0, 0.0, 0.0, 0.0, 1.0, 0.0, 0.0, 0.0, 0.0, 0.0, 0.0, 0.0, 0.0, 0.0, 0.0, 0.0, 0.0, 0.0, 0.0, 0.0, 0.0, 0.0, 1.0], "bins": [-2.0400662492647825e-08, -1.9397855766101202e-08, -1.839504726319774e-08, -1.7392240536651116e-08, -1.6389432033747653e-08, -1.538662530720103e-08, -1.4383818580654406e-08, -1.3381010965929363e-08, -1.237820335120432e-08, -1.1375395736479277e-08, -1.0372588121754234e-08, -9.36978139520761e-09, -8.366973780482567e-09, -7.364166165757524e-09, -6.361358995121691e-09, -5.358551824485858e-09, -4.3557442097608146e-09, -3.3529368170803764e-09, -2.3501294243999382e-09, -1.3473220317195e-09, -3.445146390390619e-10, 6.582927536413763e-10, 1.6611001463218145e-09, 2.6639075390022526e-09, 3.666714931682691e-09, 4.669522546407734e-09, 5.672329717043567e-09, 6.6751368876794e-09, 7.677944502404443e-09, 8.680752117129487e-09, 9.68355884367611e-09, 1.0686366458401153e-08, 1.1689177625839875e-08, 1.2691985240564918e-08, 1.3694792855289961e-08, 1.4697599581836585e-08, 1.5700408084740047e-08, 1.670321481128667e-08, 1.7706021537833294e-08, 1.8708830040736757e-08, 1.971163676728338e-08, 2.0714443493830004e-08, 2.1717251996733467e-08, 2.272005872328009e-08, 2.3722865449826713e-08, 2.4725673952730176e-08, 2.57284806792768e-08, 2.6731289182180262e-08, 2.7734095908726886e-08, 2.873690263527351e-08, 2.9739711138176972e-08, 3.0742519641080435e-08, 3.174532636762706e-08, 3.274813309417368e-08, 3.3750939820720305e-08, 3.475374654726693e-08, 3.575655682652723e-08, 3.6759363553073854e-08, 3.776217027962048e-08, 3.876498055888078e-08, 3.97677872854274e-08, 4.0770594011974026e-08, 4.177340073852065e-08, 4.277620746506727e-08, 4.3779014191613896e-08]}, "gradients/model.1.submodule.0.adn.A.weight": {"_type": "histogram", "values": [0.0, 0.0, 0.0, 0.0, 0.0, 0.0, 0.0, 0.0, 0.0, 0.0, 0.0, 0.0, 0.0, 0.0, 0.0, 0.0, 0.0, 0.0, 0.0, 0.0, 0.0, 0.0, 0.0, 0.0, 0.0, 0.0, 0.0, 0.0, 0.0, 0.0, 0.0, 0.0, 1.0, 0.0, 0.0, 0.0, 0.0, 0.0, 0.0, 0.0, 0.0, 0.0, 0.0, 0.0, 0.0, 0.0, 0.0, 0.0, 0.0, 0.0, 0.0, 0.0, 0.0, 0.0, 0.0, 0.0, 0.0, 0.0, 0.0, 0.0, 0.0, 0.0, 0.0, 0.0], "bins": [-0.01721680723130703, -0.01721680723130703, -0.01721680723130703, -0.01721680723130703, -0.01721680723130703, -0.01721680723130703, -0.01721680723130703, -0.01721680723130703, -0.01721680723130703, -0.01721680723130703, -0.01721680723130703, -0.01721680723130703, -0.01721680723130703, -0.01721680723130703, -0.01721680723130703, -0.01721680723130703, -0.01721680723130703, -0.01721680723130703, -0.01721680723130703, -0.01721680723130703, -0.01721680723130703, -0.01721680723130703, -0.01721680723130703, -0.01721680723130703, -0.01721680723130703, -0.01721680723130703, -0.01721680723130703, -0.01721680723130703, -0.01721680723130703, -0.01721680723130703, -0.01721680723130703, -0.01721680723130703, -0.01721680723130703, -0.01721680723130703, -0.01721680723130703, -0.01721680723130703, -0.01721680723130703, -0.01721680723130703, -0.01721680723130703, -0.01721680723130703, -0.01721680723130703, -0.01721680723130703, -0.01721680723130703, -0.01721680723130703, -0.01721680723130703, -0.01721680723130703, -0.01721680723130703, -0.01721680723130703, -0.01721680723130703, -0.01721680723130703, -0.01721680723130703, -0.01721680723130703, -0.01721680723130703, -0.01721680723130703, -0.01721680723130703, -0.01721680723130703, -0.01721680723130703, -0.01721680723130703, -0.01721680723130703, -0.01721680723130703, -0.01721680723130703, -0.01721680723130703, -0.01721680723130703, -0.01721680723130703, -0.01721680723130703]}, "gradients/model.1.submodule.0.conv.weight": {"_type": "histogram", "values": [1.0, 1.0, 0.0, 0.0, 0.0, 0.0, 1.0, 0.0, 0.0, 0.0, 1.0, 0.0, 0.0, 0.0, 1.0, 0.0, 2.0, 2.0, 0.0, 0.0, 0.0, 0.0, 1.0, 1.0, 0.0, 2.0, 0.0, 0.0, 3.0, 3.0, 1.0, 1.0, 1.0, 0.0, 2.0, 2.0, 3.0, 4.0, 3.0, 3.0, 2.0, 1.0, 1.0, 2.0, 3.0, 1.0, 0.0, 2.0, 1.0, 0.0, 0.0, 2.0, 1.0, 5.0, 0.0, 3.0, 5.0, 5.0, 4.0, 3.0, 6.0, 10.0, 6.0, 6.0], "bins": [-0.002981453202664852, -0.0029320302419364452, -0.0028826070483773947, -0.0028331840876489878, -0.002783761126920581, -0.002734338166192174, -0.0026849149726331234, -0.0026354920119047165, -0.0025860690511763096, -0.0025366460904479027, -0.002487222896888852, -0.002437799936160445, -0.0023883769754320383, -0.0023389540147036314, -0.002289530821144581, -0.002240107860416174, -0.0021906846668571234, -0.0021412617061287165, -0.002091838512569666, -0.002042415551841259, -0.001992992591112852, -0.0019435695139691234, -0.0018941464368253946, -0.0018447234760969877, -0.0017953005153685808, -0.001745877438224852, -0.0016964544774964452, -0.0016470314003527164, -0.0015976084396243095, -0.0015481853624805808, -0.001498762285336852, -0.0014493393246084452, -0.0013999163638800383, -0.0013504932867363095, -0.0013010703260079026, -0.0012516472488641739, -0.001202224288135767, -0.0011528012109920382, -0.0011033781338483095, -0.0010539551731199026, -0.001004531979560852, -0.0009551089606247842, -0.0009056859416887164, -0.0008562628645449877, -0.0008068398456089199, -0.000757416826672852, -0.0007079938077367842, -0.0006585707888007164, -0.0006091478280723095, -0.0005597248091362417, -0.0005103017902001739, -0.0004608787421602756, -0.0004114556941203773, -0.0003620326751843095, -0.00031260965624824166, -0.0002631866082083434, -0.00021376358927227557, -0.00016434055578429252, -0.00011491752957226709, -6.549450336024165e-05, -1.6071469872258604e-05, 3.335155997774564e-05, 8.277458982774988e-05, 0.0001321976160397753, 0.00018162064952775836]}, "gradients/model.1.submodule.0.conv.bias": {"_type": "histogram", "values": [1.0, 0.0, 0.0, 0.0, 0.0, 0.0, 0.0, 0.0, 0.0, 0.0, 0.0, 0.0, 0.0, 0.0, 0.0, 0.0, 0.0, 0.0, 0.0, 0.0, 0.0, 0.0, 0.0, 0.0, 0.0, 0.0, 0.0, 0.0, 0.0, 0.0, 0.0, 0.0, 0.0, 0.0, 0.0, 0.0, 0.0, 0.0, 0.0, 0.0, 0.0, 0.0, 0.0, 0.0, 0.0, 0.0, 0.0, 0.0, 0.0, 0.0, 0.0, 0.0, 0.0, 0.0, 0.0, 0.0, 0.0, 0.0, 0.0, 0.0, 0.0, 0.0, 0.0, 1.0], "bins": [-2.7909783284485457e-07, -2.745223923739104e-07, -2.6994695190296625e-07, -2.653715114320221e-07, -2.6079607096107793e-07, -2.5622063049013377e-07, -2.516451900191896e-07, -2.4706974954824545e-07, -2.424943090773013e-07, -2.3791886860635714e-07, -2.3334342813541298e-07, -2.2876798766446882e-07, -2.2419254719352466e-07, -2.1961709251172579e-07, -2.1504165204078163e-07, -2.1046621156983747e-07, -2.058907568880386e-07, -2.0131531641709444e-07, -1.9673987594615028e-07, -1.9216443547520612e-07, -1.8758899500426196e-07, -1.8301354032246309e-07, -1.7843809985151893e-07, -1.7386265938057477e-07, -1.692872189096306e-07, -1.6471177843868645e-07, -1.601363379677423e-07, -1.5556089749679813e-07, -1.5098544281499926e-07, -1.464100023440551e-07, -1.4183456187311094e-07, -1.3725912140216678e-07, -1.3268369514207734e-07, -1.2810825467113318e-07, -1.2353281420018902e-07, -1.189573666238175e-07, -1.1438192615287335e-07, -1.0980648568192919e-07, -1.0523103810555767e-07, -1.0065559763461351e-07, -9.608015716366936e-08, -9.15047166927252e-08, -8.692927622178104e-08, -8.235382864540952e-08, -7.777838817446536e-08, -7.32029477035212e-08, -6.862750012714969e-08, -6.405205965620553e-08, -5.947661918526137e-08, -5.490117871431721e-08, -5.0325734690659374e-08, -4.5750290667001536e-08, -4.117485019605738e-08, -3.659940972511322e-08, -3.202396570145538e-08, -2.7448523454154383e-08, -2.2873081206853385e-08, -1.8297638959552387e-08, -1.3722196712251389e-08, -9.14675446495039e-09, -4.5713122176493926e-09, 4.130029651605582e-12, 4.579572276952604e-09, 9.155014524253602e-09, 1.37304567715546e-08]}, "gradients/model.0.adn.A.weight": {"_type": "histogram", "values": [0.0, 0.0, 0.0, 0.0, 0.0, 0.0, 0.0, 0.0, 0.0, 0.0, 0.0, 0.0, 0.0, 0.0, 0.0, 0.0, 0.0, 0.0, 0.0, 0.0, 0.0, 0.0, 0.0, 0.0, 0.0, 0.0, 0.0, 0.0, 0.0, 0.0, 0.0, 0.0, 1.0, 0.0, 0.0, 0.0, 0.0, 0.0, 0.0, 0.0, 0.0, 0.0, 0.0, 0.0, 0.0, 0.0, 0.0, 0.0, 0.0, 0.0, 0.0, 0.0, 0.0, 0.0, 0.0, 0.0, 0.0, 0.0, 0.0, 0.0, 0.0, 0.0, 0.0, 0.0], "bins": [-0.1299363374710083, -0.1299363374710083, -0.1299363374710083, -0.1299363374710083, -0.1299363374710083, -0.1299363374710083, -0.1299363374710083, -0.1299363374710083, -0.1299363374710083, -0.1299363374710083, -0.1299363374710083, -0.1299363374710083, -0.1299363374710083, -0.1299363374710083, -0.1299363374710083, -0.1299363374710083, -0.1299363374710083, -0.1299363374710083, -0.1299363374710083, -0.1299363374710083, -0.1299363374710083, -0.1299363374710083, -0.1299363374710083, -0.1299363374710083, -0.1299363374710083, -0.1299363374710083, -0.1299363374710083, -0.1299363374710083, -0.1299363374710083, -0.1299363374710083, -0.1299363374710083, -0.1299363374710083, -0.1299363374710083, -0.1299363374710083, -0.1299363374710083, -0.1299363374710083, -0.1299363374710083, -0.1299363374710083, -0.1299363374710083, -0.1299363374710083, -0.1299363374710083, -0.1299363374710083, -0.1299363374710083, -0.1299363374710083, -0.1299363374710083, -0.1299363374710083, -0.1299363374710083, -0.1299363374710083, -0.1299363374710083, -0.1299363374710083, -0.1299363374710083, -0.1299363374710083, -0.1299363374710083, -0.1299363374710083, -0.1299363374710083, -0.1299363374710083, -0.1299363374710083, -0.1299363374710083, -0.1299363374710083, -0.1299363374710083, -0.1299363374710083, -0.1299363374710083, -0.1299363374710083, -0.1299363374710083, -0.1299363374710083]}, "gradients/model.0.conv.weight": {"_type": "histogram", "values": [1.0, 0.0, 0.0, 0.0, 0.0, 0.0, 0.0, 0.0, 0.0, 2.0, 0.0, 0.0, 1.0, 0.0, 1.0, 2.0, 4.0, 3.0, 2.0, 3.0, 3.0, 6.0, 5.0, 3.0, 7.0, 5.0, 4.0, 3.0, 12.0, 7.0, 5.0, 6.0, 5.0, 4.0, 7.0, 5.0, 6.0, 4.0, 3.0, 2.0, 1.0, 4.0, 1.0, 0.0, 4.0, 4.0, 2.0, 1.0, 2.0, 1.0, 2.0, 1.0, 1.0, 5.0, 1.0, 1.0, 4.0, 2.0, 1.0, 0.0, 1.0, 0.0, 0.0, 2.0], "bins": [-0.0015364717692136765, -0.0014801898505538702, -0.0014239078154787421, -0.0013676258968189359, -0.0013113438617438078, -0.0012550619430840015, -0.0011987799080088735, -0.0011424979893490672, -0.0010862159542739391, -0.0010299340356141329, -0.0009736520005390048, -0.0009173700236715376, -0.0008610880468040705, -0.0008048060699366033, -0.0007485240930691361, -0.000692242116201669, -0.0006359601975418627, -0.0005796782206743956, -0.0005233962438069284, -0.00046711426693946123, -0.00041083229007199407, -0.00035455034230835736, -0.0002982683654408902, -0.00024198638857342303, -0.00018570444080978632, -0.00012942246394231915, -7.31404943508096e-05, -1.6858521121321246e-05, 3.942345210816711e-05, 9.570542897563428e-05, 0.0001519873912911862, 0.00020826936815865338, 0.000264551374129951, 0.00032083335099741817, 0.00037711532786488533, 0.0004333973047323525, 0.0004896792815998197, 0.0005459612584672868, 0.000602243235334754, 0.0006585252122022212, 0.0007148071890696883, 0.0007710891659371555, 0.0008273711428046227, 0.0008836531196720898, 0.000939935096539557, 0.0009962170151993632, 0.0010524990502744913, 0.0011087809689342976, 0.0011650628875941038, 0.00122134480625391, 0.0012776268413290381, 0.0013339087599888444, 0.0013901907950639725, 0.0014464727137237787, 0.0015027547487989068, 0.001559036667458713, 0.0016153187025338411, 0.0016716006211936474, 0.0017278826562687755, 0.0017841645749285817, 0.0018404466100037098, 0.001896728528663516, 0.0019530105637386441, 0.002009292598813772, 0.0020655745174735785]}, "gradients/model.0.conv.bias": {"_type": "histogram", "values": [1.0, 0.0, 0.0, 0.0, 0.0, 0.0, 0.0, 0.0, 0.0, 0.0, 0.0, 0.0, 0.0, 0.0, 0.0, 0.0, 0.0, 0.0, 0.0, 0.0, 0.0, 0.0, 0.0, 0.0, 0.0, 0.0, 0.0, 0.0, 0.0, 0.0, 0.0, 0.0, 0.0, 0.0, 0.0, 0.0, 0.0, 0.0, 0.0, 0.0, 0.0, 0.0, 0.0, 0.0, 0.0, 0.0, 0.0, 0.0, 0.0, 0.0, 0.0, 0.0, 0.0, 0.0, 0.0, 0.0, 0.0, 0.0, 0.0, 0.0, 0.0, 0.0, 0.0, 1.0], "bins": [-2.9166578485728678e-08, -2.6257307439436772e-08, -2.3348036393144866e-08, -2.043876357049612e-08, -1.7529492524204215e-08, -1.462022147791231e-08, -1.1710949543441984e-08, -8.801677608971659e-09, -5.892406562679753e-09, -2.983135072298637e-09, -7.386358191752151e-11, 2.835407908463594e-09, 5.74467939884471e-09, 8.653950445136616e-09, 1.1563222379606941e-08, 1.4472494314077267e-08, 1.7381765360369172e-08, 2.0291036406661078e-08, 2.3200307452952984e-08, 2.610958027560173e-08, 2.9018851321893635e-08, 3.192812414454238e-08, 3.4837395190834286e-08, 3.774666623712619e-08, 4.0655940836131776e-08, 4.356521188242368e-08, 4.647448292871559e-08, 4.9383753975007494e-08, 5.22930250212994e-08, 5.5202299620304984e-08, 5.811157066659689e-08, 6.10208417128888e-08, 6.393011631189438e-08, 6.683939091089997e-08, 6.974865840447819e-08, 7.265793300348378e-08, 7.5567200497062e-08, 7.847647509606759e-08, 8.138574258964582e-08, 8.42950171886514e-08, 8.720428468222963e-08, 9.011355928123521e-08, 9.302282677481344e-08, 9.593210137381902e-08, 9.884136886739725e-08, 1.0175064346640283e-07, 1.0465991095998106e-07, 1.0756918555898665e-07, 1.1047846015799223e-07, 1.1338773475699782e-07, 1.1629700225057604e-07, 1.1920627684958163e-07, 1.221155514485872e-07, 1.2502481183673808e-07, 1.2793408643574367e-07, 1.3084336103474925e-07, 1.3375263563375483e-07, 1.3666191023276042e-07, 1.39571184831766e-07, 1.4248044521991687e-07, 1.4538971981892246e-07, 1.4829899441792804e-07, 1.5120826901693363e-07, 1.541175294050845e-07, 1.5702680400409008e-07]}, "_step": 20, "training_loss": 1.3145034313201904, "epoch": 10, "validation_loss": 1.111571192741394, "_wandb": {"runtime": 305}}